-1.129360352949601 -2.215920700450268 -0.858294479236251 -0.706098797002101
 -0.01370928108098469 0.2893421229935231 0.1887251912618047 -0.4680332339033452
 -0.08083881964417595 0.06357592875402195 0.02297057231417973 -0.04277023964650736
 -0.9102572744611837 -0.4697452685251439 0.988566454963544 -0.5260740984513763
 -0.8779580002696218 -1.22994600789527 1.551280350057154 -0.709288239878465
 -0.05765393218954615 -0.3561873235522165 0.5253246448215925 -0.2617051895694993
 -0.3898803564303738 -0.1183642165096357 0.3483298974579945 -0.09776901927025733
 -0.05051057594881431 -0.1478875895657476 0.3267026083995935 -0.02196868687807946
 -0.4914945782519139 -0.533145039549823 0.6727755805582419 -0.3205489705384332
 -0.009463168246885896 -0.06956356204023101 0.0188777079806992 -0.007157193058559754
 -0.1165777709390018 -0.2076932917908575 -0.03741040738588075 0.1907199425379317
 0.2851505644016908 -0.5844635530737086 0.365172726328915 -0.2350983685310366
 -0.1398422784472285 -0.1239814942942288 0.2560537305985706 -0.07452886192763357
 -0.003986164011005389 -0.006208282627199467 0.003668394287943468 -0.001418418074897394
 -0.1272971280226405 -0.08370089175673075 0.1141774570547276 -0.03589249598700173
 -0.01024489490364182 -0.01586118236812296 0.01311054100526812 -0.007163941948944564
 -0.1394615863094937 -0.02626883611100282 0.1492540155493814 -0.03309300687989628
 -0.04745501310201111 -0.03200895142112786 0.05636620423182688 -0.01817020639952642
 -0.1881720924541549 -0.09088954875220501 0.2107359361356719 -0.03770891987094748
 -0.2250793847810063 -0.2114886734658389 0.4248985029494953 -0.1444012462408944
 -0.07016996938563053 -0.04285377459091014 0.07930617969329565 -0.05202940907851392
 -0.05982765098103824 -0.01912711771089253 0.0211318191591744 -0.01328640062081235
 -0.06571548575086562 -0.2693050349637759 0.08144661902844104 -0.0201937447020592
 0.03252591946292366 -0.1393925173985922 0.1124256532402078 -0.02896244711316773
 -0.02129714481817475 -0.05983831304229612 0.02485815173228387 -0.01653840824060593
 -0.1929621269892002 -0.06315754230440036 0.1685772666442878 -0.0627235556120012
 -0.221059505851694 -0.09192113176404505 0.2473155065729033 -0.03813655857923145
 -0.8259576840209495 0.3665720136027403 0.5607457153986983 -0.2120370597398194
 0.1019390519572141 -0.1315833352506329 0.115600449379767 -0.04682886443518964
 0.1866831194272769 -0.02615095865171782 0.07300955796568113 -0.04778547735088439
 -0.05530247426552579 0.06042834786754875 0.005062401632596935 -0.03177502900215281
 -0.405717904883111 -0.678371069873838 0.7707153834172108 -0.5099898394486014
 -0.05712003685753908 -0.04498040404512519 0.07355829190373267 -0.04333200906172028
 0.05280063806387428 -0.3124159421212979 0.002538564526729064 -0.1331041913714879
 0.03297765486685691 -0.3670666378128929 0.4095426051277967 -0.1266757913841004
 0.3583484607361631 -0.02663525897238456 -0.40405398647138 -0.006700016008377043
 -0.173865010975173 -0.06634968327967281 0.1584860966631993 -0.03736242551441359
 -0.04686159077969576 -0.04088720121683602 0.09348518282808668 -0.01493852475980277
 -0.1669432380449864 -0.06904452111730904 0.2951110711851814 -0.1027024174224131
 -0.07267458672825849 -0.03091285163231502 0.1397571824387189 -0.07747728665685136
 -0.08568622168842571 -0.01940258698301599 0.0869207909721046 -0.03105185550228909
 -0.2144991357527646 -0.0992524581604247 0.3566207218112384 -0.03488994320954272
 -0.03462015844042673 -0.0278963594063716 0.04445481922833867 -0.02912067144662783
 -0.3009227570421378 -0.09231099973201304 0.2600758574808445 -0.02608634663798928
 -0.1547276761682742 -0.02480180117367626 0.1748763717712243 -0.03079654582129882
 -0.03275333042155013 -0.07115326353318412 0.05532811644432464 -0.005634886395732008
 -0.1570308849021338 0.085274178606737 0.5065394380744926 -0.7449901313123535
 -0.2985207643170852 -0.2295981561593329 0.3564109543496936 -0.1096375814310397
 -0.08957754375977567 -0.08597476766803347 0.3809480482131735 -0.03895141038362698
 -0.04735773658670493 0.05686768891794607 -0.06773466923564482 -0.02825476013234256
 -0.5144352278924411 0.181942119066462 0.3747732526588105 -0.27093118243341
 -0.0922374066171074 -0.1699269196190513 0.2188991299121908 -0.07553950052134902
 -0.1432860608072939 -0.09165102044331302 0.154822333481308 -0.05097371818341381
 -0.1496904313642938 -0.02358975219045587 0.1160897859239495 -0.03911836700839752
 -0.02407724201224586 -0.01538358465316676 0.02130988890992399 -0.009145932380853903
 -0.1531786492318936 -0.04854176312104761 0.1118652324145246 -0.0291751538698025
 -0.08235719198750839 -0.04306599931516579 0.1665176755477715 -0.1055037477449949
 -0.03834371710562125 -0.0107894167865397 0.01041128586348486 -0.002992314158214293
 -0.2478634630639814 -0.1752327725788155 0.4431262411732814 -0.1122826948780627
 -0.01637275329229362 -0.02731250540788976 0.01612211684556047 -0.01089049262754061
 -0.1512691064378283 -0.01908609743647428 0.174835661238959 -0.02950141329966804
 -0.01245021371520563 -0.007914751490786682 0.01128994424526633 -0.003917887284084771
 -0.02811227214011404 -0.07146799961065815 0.05600280293047676 -0.006166888882553556
 -0.3905443076137173 -0.197380447927784 0.03757520772850171 0.01867430375101194
 -0.2307067239692197 0.1057180062590243 0.06273964288580038 -0.04592211811594836
 -0.02090234357068726 -0.0117611092300711 0.03127589524897186 -0.008265569871965077
 -0.1823343275469524 -0.2594899258489646 0.675447390638886 -0.0795077581524443
 -0.1903788396352799 -0.1908247859488543 0.3692473409638948 -0.0884804599444324
 -0.1607681051804084 -0.1056314040821078 0.1636022370907801 -0.04282963044624413
 -0.02637234944336659 -0.02694873465377273 0.02847003507317633 -0.007171756610084424
 -0.03167667769920391 -0.05534612741644752 0.1386196085941716 -0.05342293425287868
 -0.02349177868596675 -0.01728461922377068 0.03354222258570017 -0.01133181354275906
 -0.1084877850009587 -0.02808823119160195 0.2046734982289649 -0.06181620505312004
 -0.1115788580865237 -0.1777994821007378 0.4108059623070204 -0.6065078658122336
 0.3966429902691914 -0.02909565981722093 -0.3268483550322114 -0.01792008765215099
 -0.02362188928624418 -0.03772021292879699 0.1051113419928597 -0.005805869476530716
 -0.03136511979109174 -0.01673026892796602 0.05649010092532589 -0.03071175762403508
 0.1005173765524644 -0.1872565467938967 -0.0432433555265371 -0.2926282393777947
 -0.1962437086825634 0.01885333420635669 0.1728448944985752 -0.1010965762214991
 -0.1110204450774689 -0.006862341745192747 0.3012927309963693 -0.3238344212563632
 -0.08450030588615448 -0.06643246818156379 0.2410368826923902 -0.04735241993304125
 -0.04224064408883134 -0.01887647261625427 0.1041172425391024 -0.003863681406815997
 -0.03420100563407634 -0.02007591126259103 0.02801249192017191 -0.004678069921372975
 -0.04702817241585682 0.3700577062860199 -0.1226365824855336 -0.7470534900594533
 -0.223941600651211 -0.2231475524471897 -0.1270146261227072 0.07677464023148939
 0.1366977497588432 -0.03976719630313645 -0.213117753677503 0.1195073078678481
 -0.05598165071893627 -0.02091947283931555 0.134646370722057 -0.08715112376851419
 -0.01418718056883153 -0.00814600521525727 0.01004676623713617 -0.006318195446186163
 -0.0567300388313933 -0.01826776525328996 0.1341568609980048 -0.08726204762925283
 -0.06580786310198104 -0.4324373833088053 0.2604980705500851 0.23557104653549
 -0.1983271356883773 -0.4276850938988166 0.1254172548512824 0.3667420289684941
 -0.3079495979571985 0.6646210993443845 0.1002891770380859 -0.5250863129074773
 0.4038513532870112 -0.069885792094355 -0.3581790389681536 -0.01206776848860909
 0.3891928981996468 -0.541860959437251 0.2428128095563551 0.03122061068822348
 -0.05059865606726729 -0.08602878308993338 0.3418934942794105 -0.1719786377848447
 -0.199024627997849 -0.2998177990354264 0.4127360049981155 -0.07008717817139365
 -0.349660885574927 -0.1641992294733852 0.4356997270234966 -0.06274090839078141
 -0.3158462389929939 -0.09482510905791176 0.2380734968740956 -0.06389973987277159
 -0.07381031018399535 -0.09122820358985255 0.05385013907654379 -0.02657583328991743
 -0.007775698005989738 -0.004979962825195887 0.01340383720256864 -0.01218491861447269
 0.3221684640709293 -0.1712494654017252 -0.1426051104965974 -0.02650936423352731
 -0.0482713883403411 -0.2473424385496089 0.07790469026730558 0.1740820936190598
 -0.6903222776373671 -0.03304415425032808 -0.01083468301466745 0.7888205052323225
 -0.01298421778973455 -0.01843525745455485 0.03659236288120345 -0.02130264370799845
 -0.005830838875482794 -0.0298780791222909 0.006192802914754027 -0.009298261760995135
 0.09524446225232808 -0.5127293924574881 0.874322709874049 -0.6359812642372451
 -0.1365402254505425 -0.06539397432718673 0.1350435823713166 -0.01852938634512876
 -0.1316552764713938 -0.05949493700531917 0.1298409541899143 -0.01785271886453469
 0.1059223067799766 -0.2030407599257107 0.109483213364881 -0.02589149995827264
 -0.0825084695838248 -0.0452567864223529 0.06637683748112205 -0.03682049982789532
 -0.2462996419857687 -0.1261437414630883 0.411132339937645 -0.1346950544634422
 -0.08653727369979052 -0.06520340873570916 0.2527751161236105 -0.05401375200576303
 -0.06256393673605919 -0.004271376249520284 0.05992627339068694 -0.04343664559727876
 0.1984158139228351 -0.07389530690023521 -0.2059724349442898 -0.01066748220240088
 -0.1976537529505169 -0.580199170693952 0.6228681715670239 0.00469958655282041
 -0.0710122958697396 -0.2849977067924915 0.2974427058170934 -0.1673447616192773
 -0.04183178747127186 -0.05042797117613933 0.04500382392682888 -0.0271987624169737
 0.0341886880088375 -0.2661143433119013 0.2599694402630263 -0.1605667796918866
 -0.02942333607282791 -0.02231954634832995 0.02575754879762095 -0.02606915150256902
 -0.2933450737799397 -0.1272761817779608 0.3886397115117186 -0.1324866938458268
 -0.130950310444776 -0.05652296879746328 0.1834992477107697 -0.01007270422981528
 -0.06191786319246269 -0.02707753766411504 0.05954362496885951 -0.02207382804655889
 -0.05814744699058817 0.01104450402882347 0.01812828323495055 -0.01558954242062876
 0.002251740245889348 -0.1057981247699986 0.5806340918094105 -0.06425488792604984
 -0.3172920362285812 -0.1164611693693935 0.3493701038433641 -0.05943052961628553
 -0.05817850026533074 -0.03248389369001705 0.04427604014041912 -0.009590231916472281
 0.129608587014342 0.05313521442956195 -0.0378909506512942 -0.1259027151141939
 -0.1365456079710249 -0.202363526945284 -0.06901813202137864 -0.08217921960454047
 -0.2187879393450995 -0.04889464980924687 0.2288792179567743 -0.003946849026281515
 -0.04416025813825419 -0.06510400824555546 0.03517295310200107 -0.0120989588011352
 0.4823463286647682 -0.3955223807471925 0.7469608557508981 -0.8140193268741148
 -0.6393022009549864 0.5195529649817398 -0.01488210872322608 -0.3857581465602268
 -0.299973580917246 0.2853768973561805 0.3064174538125727 -0.2791618176764636
 -0.149812079719143 0.317568392540257 -0.01992645237996929 -0.2518260876572206
 0.1562743081294701 -0.00889051815439683 -0.2965872761803466 0.1638708806780793
 -0.4735082124136127 0.2240702374732652 0.2301020334314044 0.1339084671765181
 -0.169042128781104 -0.331294396730468 0.03073489939857942 0.6480414170979949
 0.664607825457842 0.297245241474313 -0.3367516122889742 -1.133663131458598
 -0.2378827422167849 -0.10562340884996 0.07303289305989738 0.4015101291963579
 0.02868747153566003 -0.04950326827744304 0.01752134682410503 -0.08055898616544636
 -0.4656985970255186 0.1006309525271366 0.1342180358547787 0.2678867838211162
 -0.02116777038408759 -0.00354429411478501 0.02648291838168057 -0.004180200371530373
 -0.3259144138702188 -0.3244003229086342 0.04115695750691824 0.5174722705312388
 0.1393895071375899 -0.1119246003237549 -0.638501282059356 -0.1676251347725386
 0.0957355982805254 0.1774913107578004 -0.2508054036003569 -0.1566167345373957
 -0.1948924445739829 0.4124762975227912 -0.8762870342974922 0.2764451037248825
 -1.019656563170452 -0.4211552918694855 1.313406466259068 -0.6925958860769025
 0.5031614537508169 -0.1501626173464737 -0.1568452298610462 -0.3060613220360017
 -0.1691459042695309 -0.1676999437445305 0.4406456678542282 0.1710223286165783
 -0.5464002916732351 0.3368154254410884 -0.4737132683657412 0.4591112492437907
 0.5246231562955254 -0.5102186102477849 -0.4328621239946449 0.01044355658631965
 -0.3025392161749763 -0.6963780210535669 -0.3218828287799715 0.743079297529382
 0.01503561139321441 -0.5667413977250247 -0.8173393896136124 0.3858274445006165
 0.1978395893923254 -0.413403438827818 -0.7374178712767895 0.1718251455499767
 0.2380275989236127 -0.07606384585142019 -0.6547306786083728 -0.08203965753279974
 -0.0917749800757143 0.4204327120531122 -0.187729119748777 -0.02589578863687183
 -0.08239046163464921 0.1975103960048319 -0.1526220046250224 0.239559723930479
 -0.09322395768477694 -0.05535812471044138 -0.5676979816092129 0.2932221651795467
 0.003017780763952227 -0.7135374763309236 -0.1508326323827169 0.234412435030411
 -0.1617727233514895 -0.9014275964562181 -0.4851560795384829 0.5786844257469729
 -0.834359735686398 0.6517985835475631 -0.522995928235054 0.4170392326833003
 0.6282980379002184 -0.4456396986170247 0.4732979910222566 -0.5485201474484201
 0.9244165640649871 -0.01485656668543595 -0.7763223143094208 -1.006527988912631
 0.1963698555766668 0.05033302700979116 -0.1882300987239325 -0.0366944835721903
 0.9782232656559408 -0.7968378743978524 -0.5613676578426039 -0.9888036741780987
 0.2246123883178095 0.5871049521617094 -0.07797926737746906 -0.6487341679731654
 0.04670255604992098 -0.01904335374992606 -0.384859265875981 0.0404043469069372
 -0.07674259462006534 0.2817147421643768 0.09325205924347353 -0.2120889248083025
 0.3560479424014102 -0.1070446980956199 -0.2261887197233253 -0.01349220337193264
 0.3850510121818881 -0.2058638468805175 0.8080064036290996 -0.3959110790740638
 0.1207934912560322 -0.2436764606955168 -0.01797975859800953 0.2772988047947303
 0.02598268922896283 0.4392287997571898 -0.7363932755863382 -0.1136388147276794
 -0.01351024482738375 0.3001741192605772 -0.745724318582954 0.1159226340815534
 0.5892611720551797 -0.2041415356391855 -0.1265640778478332 -0.4661375543297112
 -0.5072461198165674 0.6816225726010232 0.1542305538017074 -0.7778670530004882
 0.1005289252694388 0.04923886065510838 -0.03222239938130021 0.09204339267006816
 -0.09649710582018305 0.2532585346662741 -0.01458574713407039 -0.1142685977366871
 -0.2766913551756909 0.2573341584354121 0.05117141041314195 -0.08473594696290772
 -0.1602995077273645 0.04900638827297665 -0.3727451136156679 0.3365029757797752
 0.2981742001132999 0.103623700933061 -0.1645460336772119 -0.3080244682561727
 -0.4142316569260114 -0.9003666960806683 -0.1083028407490183 1.108831213664666
 0.1888900307516592 0.3344753956658127 -0.3985097297821782 -0.1186365387089733
 -0.3676365843661348 -0.01499218298995328 -0.03375868019057866 0.3913330202257223
 0.3676295914431958 -0.03929916087125516 -0.3814015752661864 0.01784282710837254
 -0.03182117744632647 -0.02573213883206438 0.07727934007043451 -0.0109717546908179
 0.4320787034224965 -0.3521734897550914 -0.2325734498626894 -0.09578056887655526
 -1.466257996541061 -0.08891226012879307 -0.1450094578731127 1.315747586534098
 0.01657471601821756 -0.09030503524156683 0.2354901383656114 -0.1013174044324411
 0.648358469899068 0.07553354870127681 0.1541614189888364 -0.6019575054679405
 -0.005006705917208051 -0.1597770645555306 0.3818918852287484 -0.1625094341952529
 0.8553636340845415 -0.3473267538424705 0.1116782426518838 -0.8634086279345341
 0.09608549462100684 0.2710873716130278 -0.01675686237996706 -0.113988083704945
 -0.4281196763374074 0.2320115470175479 0.0184995507178003 0.1831175350180933
 -0.1262375630947185 -0.6784178627301561 0.01531759759905269 0.7772857758128785
 1.00461979256837 -0.5617150790600232 -0.4771035744081459 -0.280546129381908
 -0.5609627428424202 -0.4686322664219038 0.9314071060916643 -0.4847328932326327
 1.181552001498066 -0.4519475794193225 0.01573060622356722 -0.8058926721811391
 -0.09649710582018324 0.2532585346662746 -0.0145857471340704 -0.1142685977366868
 1.653080920505256 -0.3905895101606747 -0.426743871688441 -1.713573750347668
 -0.3665502759156943 0.09802562453550523 -0.3720490558888687 0.3571064216761401
 -0.08939535420367109 0.6172023506116302 -0.1106317010564147 -0.6223441001482475
 0.3910340172787565 0.02312893298460631 -0.06971349313579925 -0.07300921355896461
 -0.6251241957135762 -1.351508607252236 0.8426307199853745 -0.5891994537866669
 0.3090951351306193 0.2264506109504653 0.1976100820896733 -0.450667276311991
 1.119138567159354 -0.8384259153835489 -0.07187381006478312 -0.8275008740360149
 0.3099380594735538 0.5723663478266456 -0.2471933465841114 -0.4201741640909182
 0.2512204442478667 0.6567036017993383 -0.5277754909285755 -0.5650926198366867
 -1.315147288695339 -1.343039108448463 1.284857649534323 -0.6352840769344008
 -0.3851874419557258 0.8987699909999285 -0.4354198670991363 -0.02908932597539926
 -0.0717596613088087 -0.3535619450678684 -0.1240401348918514 0.3993348847446424
 1.586874217193762 -0.8476506068821836 -0.925147980445104 -1.073903255283964
 -0.06819164919423697 -0.5318896349986463 -0.6163750204316591 0.6087056519316087
 -0.6636843853305611 -0.2531664725440744 -0.06181430394106308 1.004462343595449
 -0.5158179127478495 0.05892430092004428 -0.2592632647807932 0.7683395648971161
 -0.000390161778290906 -0.1314285183324306 -0.4001648786904232 0.2495584537117866
 0.2662621494209297 -0.3069304783238178 0.4080236145465342 -0.06198190926261923
 -0.2597069423387147 -0.2589231313884758 -0.2002680311240257 0.7799725525188295
 0.7693768813374203 -0.1368765016149975 -0.1363909180796007 -0.3395997947172245
 -0.1151604186808773 -0.4842011292465599 -0.09047534253244603 0.7004980482986721
 -1.20543031744816 -1.657654421531699 -0.5011595641053648 1.995268271324653
 -0.7614915952289792 -1.05779236626834 -1.28578986670802 1.609451395254131
 0.9423848706677815 -0.08810075223348227 -0.4575203678712367 -0.4742863536034332
 -0.6028238091744581 -0.738486693022728 -0.07896057627781057 0.7946462220454121
 -0.0766100817031832 0.1526014588015123 0.05205136090553127 -0.2096012750201643
 0.00138192696458555 -0.3180879680889284 -0.184144687309713 0.2931198072986914
 -0.01050190829123157 -0.3267575957562708 -0.3599863298473619 0.3150563665292596
 -0.01596276796496598 -0.638197661954056 -0.005549539781406992 0.2651461189877305
 0.3023933680653758 0.4363741882282963 -0.07999343664139494 -0.4390992361691201
 0.4681957063529052 -0.3631140564182468 -0.04074931331199892 0.2768538891459602
 0.02656744348658814 -0.2741080392540493 0.2436377708582391 -0.03029526805708636
 0.1137670073296373 0.4821540423167922 -0.06325609345097434 -0.6568630605608951
 0.2883462207225597 -0.1987060643265002 -0.01711952795954517 -0.4499088862491095
 0.6064370693916068 -0.2805228007322728 -0.275689189746633 -0.3006088608422518
 0.4137861289259371 -0.3834059674742779 -0.1777499763588394 0.1648158002315907
 0.3000162168621566 -0.3231945345138183 0.3349202425191097 -0.07169830143244549
 -0.09562963744209231 0.420776549076292 -0.03753423419651995 -0.2408550886667855
 0.04183830383045078 -0.0501792751270581 0.0009079967073739699 0.2429323758819962
 -0.5068058283616024 0.2846481975048521 -0.1997358262191676 0.4497807002805965
 -0.157457215502236 0.08700329485676564 0.3426257960848899 -0.5078579191806367
 -0.1521524548296476 -0.05445887388341471 -0.0434828955431826 0.3066192989009061
 0.1893038257484891 0.3035476426881036 -0.2382191541396708 -0.3326194167354656
 0.2500923716817302 0.2171554831876699 0.03279306672556751 -0.4449420714770275
 -0.7417602760017704 0.4911574864792873 0.2789768549207556 -0.3476901734385122
 0.558469816048429 -0.486228758129315 -0.1117392477384826 -0.1250952832003129
 -0.03638982811278461 0.2816036303806865 -0.4099228683954252 -0.0573305981988998
 0.2673619831832348 -0.6660638914591895 0.07818659789031751 -0.002375514990678386
 -0.0966636965140206 -0.2312065291658025 -0.03248695812544286 0.2378240271654568
 -0.03385618580142215 0.02272261612007187 0.01679255029031792 -0.003503422878206102
 0.07336841634226841 0.2184686641094035 0.0289031617918831 -0.09167124060830228
 0.9669552314740463 -0.5396556564406869 -0.07346464890912895 -0.6669821837379962
 -0.3499307859073012 0.1906845278652938 -0.100524777973887 0.2739868655075923
 -0.3213796901594438 -0.1160301804175228 -0.04593418548072176 0.2139291416546408
 -0.2677673097676724 -0.06500278754364706 -0.5677199698907291 0.2534833607946309
 -0.1552819593041448 0.6409484160527427 -0.1869481137660997 -0.6760438736381476
 0.09692680396739106 -0.1633927192165386 0.1977432063426474 0.04678719207760311
 0.3101020328180883 0.259374673975737 0.1101061409837269 -0.4430625023163866
 0.1271135349686434 0.1357357261921842 0.1561825176255304 -0.6426769556985573
 0.5056440272866068 -0.05051975974576533 -0.2324511393623464 -0.1521091470058112
 0.4325410597575998 -0.4384435980128302 0.1712412288150068 0.06848816148723078
 -0.4069147307952267 0.1124010986249595 -0.1882440093672769 0.1812922042334848
 -0.06832684693946899 0.2670095869926498 -0.02102544484315436 -0.1524432422586932
 -0.6081648705980519 -0.8308906400996259 1.102033026722751 -0.1937049332412515
 0.07232180517403748 0.2849213796965789 -0.4022534781835946 0.02655717353499029
 0.6647026843388953 -0.406433097930971 -0.08228647194139212 -0.0512419478212304
 0.1493466703757703 0.3278025911018846 -0.1668190665601172 -0.5703741370971649
 0.3470530019222667 -0.03675962212895953 -0.08376402042719344 -0.2476179836911997
 0.7368223521879116 -0.7500858423390196 -0.4633951525304367 0.1523231950373436
 -0.05735927556371353 0.09487313920002155 -0.1050688656555801 -0.1971606850279411
 -0.004916081521762216 0.226401862406603 -0.04213719658588941 -0.04328429034937547
 0.0480891809296498 -0.02588477635194969 -0.1268298531606132 -0.07746034424291111
 -0.4346546925773089 -0.6748143755352737 1.129170983242259 -0.5064771983363919
 -0.461093415174241 0.2013051515389111 0.07578855363490999 -0.07176247935082301
 -0.2178980540393079 0.2235313837663637 0.3274593693346037 -0.3859978634993491
 -0.006111842232588115 -0.06881360893518244 0.3627942909897048 -0.2728800940405376
 0.1763608541727728 -0.02943459352681455 -0.1625942926722517 -0.04900649319704555
 0.1470039848423309 -0.207866415469037 -0.1232699720773222 0.004600288441986378
 -0.06780610861189114 -0.1359150057510464 0.1887821691509895 -0.3541192350392952
 0.4407644113085971 -0.3378961526605598 -0.007716752175529751 -0.1908824819354381
 -0.01413976599625897 -0.2264702512431864 0.07024637039601933 -0.02190043324751367
 0.1079228618924042 0.1100465246711071 -0.2420546365868977 -0.151679188215603
 -0.4690064953639324 -0.2005291657877245 -0.04254145973309284 0.6186526538970246
 -0.1367488689336613 -0.1573831847153679 0.3537066116075249 -0.1338506312630425
 -0.06963037840918795 0.06922139377914413 -0.1776948388382428 -0.01986937147655985
 -0.1606242753720462 -0.5277576193282539 0.01147224920747764 0.2446617285625541
 -0.7363234410564141 0.1694910106406438 -0.04792516228343561 0.4397252544586713
 -0.09455947357092012 0.2725597930249501 -0.258872958512251 -0.1527209854962586
 -0.2281655707748282 0.08936352676668945 -0.02574826352065442 -0.04367089027878732
 -0.2498040092275631 -1.064309527612248 1.494574126427467 -0.4867505390474186
 -0.2575502666588919 0.1383554458045248 0.1732401567801448 0.2081757639156488
 -0.674070158722574 0.51312805373584 -0.01076746210720004 0.1914761002204992
 0.4085870222118753 -0.1299039356538225 -0.5694239398559006 0.2562536972114629
 -0.410682451599073 0.4655285117028284 0.1595023835119074 0.1831040170153438
 0.2644246972652393 0.7349593148304799 0.1274146590815152 -0.8540448813006876
 0.1477399051455014 0.3742724720748087 0.1011743026350533 -0.7540698423872724
 0.1545029820406018 0.3404930547678918 -0.1774527844267792 -0.3145045098635755
 -0.007074105949457193 -0.344197897148961 0.4950884366390045 0.1183416074292662
 -0.3988163828374082 0.04420877523787466 -0.2010023554978033 0.4958177426670897
 -0.2186568008043443 0.9149738217963956 -0.1624837980057978 -0.4168974255307297
 -0.04811302557018614 0.09978630604603057 0.1413419690587289 0.05960699252949039
 0.3398001275512032 -0.1920625043544905 -0.02144248955916273 -0.09003491033598209
 -0.1385366076337164 0.3520078817403943 -0.2246095804166122 -0.3140761235021071
 0.01176550782583257 -0.1493547777635239 0.1331779108183452 0.1314283959761745
 -0.3873293406301321 0.07622195822989097 0.4884076548493406 -0.149946456869072
 -0.07484415286371184 0.1914664251953857 -0.05987507414344847 -0.1149333443484991
 -0.1004239550206552 -0.09553817064116457 0.05602014818121276 0.05082639152664271
 -0.2641420070871049 -0.2450333829941145 -0.004940819253136418 0.4468331037821709
 0.1691102755881817 -0.005323984432371843 -0.2862555507336207 0.254688405936557
 0.00456939731557462 -0.2926688095730058 0.1018061663087773 -0.02668313457267609
 -0.06711472009814849 -0.1700998322877983 0.01053385871105795 0.1141298232677074
 0.8582808153421105 -0.3226438841947168 0.1778530022284965 -0.6531761654424982
 -0.2261880166798103 0.000101844823843905 0.4009218657559191 -0.1028857097552921
 0.370283974715823 -0.6685825444219579 0.7000798320081804 -0.1974611111267804
 0.178414029848961 -0.3458511328956655 -0.0980943569463982 -0.1902468967899501
 -0.05881909097461048 -0.1566162121068222 -0.0415544379626902 0.3139362381524387
 -0.5215063459541929 0.009153593402916249 -0.006417015988404594 0.3492878429615212
 -0.4467052911051306 0.184488229492103 -0.01641012229896915 0.06550058359608626
 -0.06174422457551947 -0.4676410153640517 0.09366803892710303 0.2167205474658495
 -0.3689025549738523 0.4830128145516523 -0.1119715252354796 -0.2822908379285676
 -0.2615398874198417 0.2218584439095262 -0.1709298067011504 -0.003449106335172458
 -0.7663561248413315 -0.9324612107309646 0.6492507680904701 1.071576168152002
 -0.01430375372389358 0.00232685925215691 -0.0930014312668028 0.09649779158305091
 0.4137397622349935 -0.2881336024083532 0.02724915653854277 -0.4117120370995292
 -0.003676380125624662 -0.12482784791993 -0.1563113424766805 0.2513074303232318
 -0.3586277375290994 0.001443392647308206 0.4371383127842011 0.06352642302060103
 -0.4074469113553931 0.3080447682680328 -0.2918577266069732 0.3749161929965462
 -0.2151473486975032 0.2573939200683741 -0.2495602208339031 0.07763973681158397
 -0.1783990015300837 0.1840429714496382 -0.01650024179923653 0.002200424105731389
 -0.08064122836274992 0.2336243847804793 0.1266549414816784 -0.5499469294553051
 -0.5911304178562352 0.3852695118177206 0.096537917292638 -0.3481632199091072
 0.8647720245696482 -0.2800323903215671 -0.4953084912902265 -0.8366026706628635
 0.2061048000512774 -0.2060667665040724 -0.02119495720935288 0.2506380760276659
 0.2172972424188629 0.5173772668024743 -0.1688642129936395 -0.4017135700160304
 -0.3040790710023224 0.7457096766177447 -0.0238692765151896 -0.1383846222750137
 -0.2178963771727511 -0.4344380823306761 0.2485526139088316 0.1134338708181641
 0.2992805993230294 -0.1731316443151523 -0.4718917974579644 0.1043201120347304
 -0.1200242093890579 -0.2598765952371105 -0.0165757663557569 0.1169987570732592
 -0.1380861380851523 0.1732899429724946 -0.2894276614218024 0.1674524315947699
 0.02435983883972798 0.3122781386942318 -0.01385622566932952 -0.352884696791231
 0.1595273119497168 0.04119510073650162 -0.1019195395932653 -0.2493555578534386
 -0.1231934958528004 0.3912324976091112 -0.1098216036831979 -0.1999511403305449
 -0.2361488767448512 0.07023809636824981 -0.1344367125266611 0.2037956051886939
 0.288439931540133 -0.2385211137606715 -0.02795624149736922 0.01746482038931311
 -0.476754909459993 0.519419846017669 -0.1036582479462898 0.340804015888212
 -0.5628664356041151 0.3248958170460559 -0.04598551487544418 -0.2388752574186796
 -0.3003178560960236 0.9682336886416081 -0.3923163709219759 -0.6504582905136399
 0.1199713258504642 0.1300910033887276 -0.03197527365003874 -0.3940322221607908
 -0.1445115269433815 0.3182458848135142 -0.1102041476218758 -0.2365054261893523
 -0.04315976300885112 -0.01678249392409131 0.04718109945746731 -0.03274923055437311
 -0.5338076257261601 -0.6246005843410581 0.405277772854965 -0.3144575650750016
 -0.02044883768249048 -0.01587032983630682 0.01637662997700949 -0.005238861321625377
 -0.262179125399037 -0.1318882081060541 0.1580495427701817 0.1416553247194237
 -0.3525967253549826 0.5859090525633605 -0.409283161162856 -0.1417036156657059
 -0.4677896947028172 0.8400788948562635 -0.0268771661159195 -0.327718821845955
 -0.6863637879459263 1.041812016146797 0.2040934400882106 -0.361267130483274
 0.1699346377838617 0.6692362297882847 -0.319461984563964 -0.4731694821042328
 0.2822278199940795 -0.3784171141540629 -0.02906366173470561 -0.03046537928936798
 -0.4309907416046026 0.3989350812294095 -0.366064371630194 0.2389759301536189
 -0.1540173984162156 0.01751862136707181 0.5921226689513353 -0.4135328862982688
 -0.0541241447421344 0.04568838935321647 -0.06098599606029064 -0.02863324467619105
 -0.07069189087962181 0.5638001946626591 -0.7358622184761161 -0.2149551707730911
 -0.1541449233243434 0.2440916055339858 -0.2490161233525046 0.02194528437429874
 0.09652355427178927 0.000689888580961914 0.01674915575952304 -0.3548156974776155
 -0.04649843818018912 0.3844729445195188 -0.4565842208093947 -0.07515390943216124
 -0.8565321096308079 0.1781728843289611 0.3985847400650425 0.1447695791058007
 -0.3451943751753043 0.6934850084368162 -0.09729060969587441 -0.2180188097818112
 0.02532282891812873 0.2397675115453211 -0.05353724921356234 -0.1441086108428616
 -0.5115292068001173 0.4029435242687613 -0.5051461662789589 -0.09222676363785234
 0.5931426252419001 -0.2623861639580007 -0.10577298513825 -0.7343883297364725
 -0.1648906466314471 -0.01746079385078354 0.1591109183776245 -0.07013611998628445
 -0.04557486073235159 -0.0871321144665609 0.3046032578629917 -0.05902816318517003
 -0.1940624446510016 -0.1778314621243964 0.2115399613784086 0.03436359781219514
 0.9334527686409476 -0.3011169075956703 -0.1075629114037238 -0.4913490000459556
 0.4612282625972749 -0.1477017720504415 -0.0574099965691979 -0.1466487294241268
 0.1607785914943875 -0.1273530542133859 -0.5056440361351298 0.231833500557038
 -0.1868503454323124 -0.252928335222918 0.1275579060462555 0.1421120921894937
 -0.1209360030377668 0.4797856180957058 -0.6541370876620172 -0.1037364703037436
 0.3590834455549478 0.07826708879380896 -0.5778849644307729 -0.2681977402638387
 -0.4354851906996939 0.9592718395224424 -0.1072305073428966 -0.8193753805207453
 -0.04069923017034732 -0.1994584555990074 -0.057194188870873 0.1946821092604907
 0.2880568559923631 0.07686526944455493 -0.1391362842028317 0.06749575796687554
 0.6612103906143583 -0.04682902423274775 -0.02766124968152067 -0.7934335698877032
 -0.0956957937408783 -0.05295293099373352 -0.05182151083317957 0.04000258907010657
 0.5120254780576131 -0.2154775956115099 -0.1480496313568974 -0.2755074181823479
 0.006590595477771439 0.1223434293147264 0.1335343858260261 -0.05805478266148931
 -0.5267331920581987 0.6287893354583475 -0.2178251614182115 -0.6123993177139763
 -0.1850613423101339 -0.7045319085785507 0.372844238173956 0.002406987119143906
 -0.2663331850022492 -0.2286714198657074 0.5582172564223743 -0.1437523308769528
 -0.2787537941423868 -0.1936704592219326 0.2659692501411635 -0.0981094955629469
 -0.285943646865069 0.1378663229070654 0.1444160729460944 -0.02982045986197404
 -0.06036941404603551 -0.3311703281100383 0.4738146133318913 -0.0830722694357626
 -0.07032607434325169 0.1539888524725091 -0.004376848323132732 -0.06319125190757692
 -0.4421233955224442 0.5540415694918729 -0.1856966606665475 -0.3924219453804581
 -0.6069252504630473 -0.003030294545269021 -0.3027001529016922 0.8011263302505951
 0.1846346108800909 -0.03650565309665663 -0.02118018154534628 -0.1381420654347024
 -0.3116118341395139 0.7694986811496032 -0.1715279211260592 -0.4177124198016294
 -0.5256981321302432 1.318426811459816 -0.3021100356330022 -1.006032372325104
 0.3689768300436354 0.03547788837552227 -0.07632829441623386 0.02718336016146277
 -0.6360631759607532 1.426580433083631 -0.5748803680390169 -1.115208731344342
 0.2648387336669885 -0.3213382015960158 -0.1267196540632627 -0.0402103175691421
 -0.8590875306614842 0.9383154003291653 -0.2101989877953793 -0.6121248888369671
 0.5421569435819498 -0.1296065629430263 0.1483816468849585 -0.2840170718122077
 -0.7137876825882447 -0.5846233171018129 1.204575397051798 -0.6843371357680231
 -0.2148076770854949 -0.03128402977534413 0.1349395901057942 -0.126662443542191
 -0.01093756094876345 -0.3778801926613022 0.07841995419864198 -0.1571750643076596
 -0.0501073835658486 -0.02568894011459627 0.07551312743266961 -0.01737997902653322
 -0.3613864869328745 -0.7398879315602793 0.3579738543377834 -0.2364854159478892
 0.4255853577805856 0.3582285737215484 -0.5251545121078641 -0.2286986101221772
 -0.6035160137317881 -0.1677963193204564 0.6262003556890825 -0.1597699968146713
 -0.4470524161985421 -0.4785181947056815 0.5262562263034593 -0.1059546231524398
 0.1744831458676164 0.2160618516791661 -0.03765395069877384 -0.3426232301014245
 -0.1525798473960767 0.5598366280101564 -0.02363219038035535 -0.231319087013803
 -0.3901388320422669 0.3116202432226177 0.105173977272154 0.09087052751295589
 -0.01486207253564536 0.02375350625274717 0.03454483273639553 -0.1660925013565793
 -0.682406669917887 -0.00635686666301845 -0.04247433735501022 0.3278849293894029
 -0.1759975480086836 0.1752878778230365 0.2184741253505038 0.1905553701594631
 -0.276342351931725 0.6896861946426247 -0.4796343086903403 -0.4690614795548506
 -0.06699893610448848 0.009769684715089743 -0.05962161694383489 -0.002990559406603703
 -0.1654774043612042 -0.1716480932096564 0.5558468762534204 -0.168443299432138
 -0.01412502770342982 -0.03524316699219529 0.02066242793578902 -0.009148836799764854
 -0.0109857184937738 0.07612561817992096 -0.01965906385385115 -0.1415525325470877
 0.3626769471992786 -0.3948267931588704 -0.4328764286303867 0.184307501016946
 -0.2804520250073789 0.2494464819035332 -0.2286428139898597 -0.01858581405687594
 -0.3092028605604043 0.4061425818939094 0.05640961304360582 -0.006145916472412137
 -0.2467452741006568 0.4355921748965883 -0.1226021206471129 -0.3000434514926777
 -0.3267143880781193 0.2070000791583206 0.2615597146036621 -0.8378596680576254
 0.6129164050629904 -0.2976798276973481 -0.122266814140508 -0.227572301834746
 -0.4392777667468787 1.553438954215445 -1.0479932878683 -1.096700129340852
 0.1774452456080786 0.9381671682628012 -1.054036018978899 -0.4640000638595639
 -0.6399840507121719 0.3914641188661216 -0.2626935041802433 -0.0865316870432304
 0.1556027877579905 0.1265148779449745 -0.07194592752109508 -0.128631968301557
 -0.3249743335061789 0.3379434273405518 -0.0172282385129094 -0.06454274382508653
 -0.3211608794832101 0.54007414396521 0.2394736795815774 -0.4795848838915656
 -0.1870128306340972 0.7696504219042002 -0.2719841813952733 -0.8210460307730487
 0.4106187882963048 0.006900688278047302 0.01234214522754807 -0.3006291777319651
 -0.4247499056899536 -0.7346626081767218 0.02796975811071713 0.8399237259951891
 -0.1773906102390117 -0.03568666612172666 -0.1304229737496941 0.03088069459968008
 -0.1791348808949072 0.1840511652275827 0.207000244532041 -0.05769676619398115
 -0.1210964122265197 -0.5413289219840474 -0.1169200053565181 0.4872994322927138
 2.011012932019974 -1.291749294629891 0.1521915580974216 -0.8188282929161169
 -0.07348911048480648 0.6752172161922327 -0.2887879590736317 -0.3528766194732607
 -0.2762637706815808 -0.5934714523242931 0.2160579473545453 0.8924845618145899
 0.1119611157654338 0.6373096024918351 -0.4213019655174364 -0.6654615004841491
 -0.2300437497311445 -0.3614715320178258 0.6505139100891979 -0.1918738691681811
 -0.2292597052085356 -0.8045786505718294 0.9171205311500448 -0.2859312979505056
 -0.3162191615239556 0.125979017515463 0.3018946004762919 -0.1141738285329826
 -0.173582386252056 0.4628401388368431 0.1815544876325219 -0.2782929246771615
 -0.1714693541972694 0.7658397685402082 -0.2194295927595758 -0.2254606481157749
 -0.4851176992613604 -0.09674885746480495 0.1739049892815078 0.04348164613742139
 0.03959142927466263 -0.4954854601085678 0.04572134882855369 -0.0273505842526752
 -0.4197492037278601 0.06595638602004995 -0.07468206936375608 0.4908122840615426
 -0.143497243111415 -0.1854811833528187 0.2626801047376705 -0.118346123690026
 -0.2295529771136628 0.08041664070012501 -0.01940905286546503 -0.2897219365623901
 -0.1435110069461545 0.2487703522161974 -0.158112650318585 0.01108261371916783
 0.2998845296419257 0.1314248924367483 0.4412941747342478 -0.3578746670101424
 -0.1105294396916785 0.138372891285724 -0.4357159205198861 -0.1761123477693264
 0.3322749103362317 -0.1936641161926219 0.1396924118862712 0.1978968407677294
 -0.4803314122126731 -0.1253874628428989 0.545213361293189 -0.2900953962932175
 -0.3402393228943848 -0.1026288389532232 0.08587461900556555 -0.01935471912350559
 -0.3653136686200379 0.4427757918090247 -0.04690986286793267 -0.6078587283927194
 0.05710348022327054 0.2933367324408822 -0.2727997489932295 -0.1487274264188435
 0.8530896098983533 -0.4004828299255586 -0.3493601281022663 -0.5854630330491929
 0.124450942914696 -0.05712065978647331 0.249056059039614 -0.2249509940133748
 0.3433272288374274 -0.3305686868970243 -0.1013383352637936 -0.06128227910493188
 -0.714438381466083 0.129270488152532 0.5918521123986745 -0.5320700296796496
 -0.1525167694109747 -0.2140140104100428 0.6477146034281892 -0.4060970451570274
 0.638087417972285 0.3430818498939739 0.1799259090170633 -0.4594353291280091
 -0.1684817584964989 0.2492547265516385 -0.1792096268444608 -0.1774015210014665
 0.04885842289685249 -0.667559630399665 -0.1734824737404345 0.7221391630978861
 0.01436305424481933 0.2777025656660033 -0.2422423256695253 -0.1609857771079363
 -0.4584562736600689 0.554904286331066 -0.1257597713119047 -0.1917890960779123
 0.09492306010315102 0.4003668497889046 -0.01810049590656176 -0.2380872170518687
 1.046217178460078 -0.9640896728228808 0.05865598106352348 -0.8624008487521958
 0.2015498689036267 -0.1922568114545345 0.1935373970239919 -0.0749968599458765
 0.575932409307925 -0.1233519223615995 -0.1860383279671737 -0.2857555656365884
 0.3756013415613858 -0.1384892021313552 -0.1900775318366869 0.1668684115961341
 -0.09091970706819137 0.1517270455076766 0.001655447132278605 -0.2473934395304286
 0.3146452024932834 0.2777648118769034 -0.4888675374159156 -0.3066107290924139
 -0.3333593688807723 0.6791813693780562 -0.2265715474305687 -0.2606643541819296
 -0.4396475112835683 0.6392709748766641 -0.02313148798754825 -0.5248358080822332
 -0.3419172443221901 -0.1453755378567212 0.01389897023164888 0.2924505034344842
 -0.1387012506364117 0.6952708084196952 0.186707456675784 -0.8633389967483163
 0.4532821516761881 -0.4854039151805671 -0.008145576612001907 0.6519589744949124
 -0.1306715827558365 -0.3076276258216521 0.3454212824281388 -0.07181234032758441
 -0.04633740937842624 -0.02826855808307475 -0.07055559346930453 0.4416559458280067
 0.3675744029412955 0.03737417849001863 -0.05704902363058673 -0.2607868495485738
 -0.1275333340157153 -0.4065381841194174 0.213115009019565 0.2905070456630216
 1.023567024901021 -0.1392568034910074 -0.2770760106805339 -0.1664384237233208
 -0.1627332042447886 0.3788842206341701 0.03219178814351268 -0.5041311366105419
 0.1381189469131355 -0.05285329466447788 -0.1319972338147772 -0.07026560616800477
 -0.2715235422891117 0.685815432183226 0.06344857616219264 -0.587575482606792
 -0.1696864232311728 -0.6279584823867769 0.5726394265543293 -0.1366933823582248
 -0.4865066889202562 -0.05696671698593087 -0.1324427697560931 0.4664567859227429
 -0.02495043835363493 0.2923810490264955 -0.0367621422769329 -0.3513747241594687
 -0.3528094805323806 0.6184260058878845 -0.02055880091730362 -0.1785275232116945
 0.272764458384521 0.39084479377465 -0.0660235433545336 -0.5494807900073669
 0.1271976017766338 -0.1247953780599506 -0.07558137315924515 -0.06554054830382222
 -0.4470260160586962 0.5526723818788638 -0.05181524777290526 -0.2654970513465638
 -0.3843869784228489 0.05245606039878652 0.04349116763086634 0.3936634356989359
 -0.4223179557466759 -0.05646726802871605 0.3582737325899563 -0.2849793279442135
 -0.3748679681152078 0.05938622076076923 -0.04930682156314145 0.5583277936541567
 0.6415526400999079 0.05211726563882672 -0.2627113509025357 -0.2570386695957884
 0.2967037907440717 0.06134019294237515 0.5764681586891003 -0.5058684897087642
 0.2370036728953462 -0.1423971481522473 0.02966278721819985 -0.01611953650826189
 -0.5607293257398164 -0.06498311426150227 -0.02014897403099386 0.5216274476598706
 -0.07585557224332704 -0.1711271151978585 0.09519363314998162 0.3825751851501867
 0.7014165951122132 0.1194183811091712 -0.3657777397766615 -0.3958748241858056
 -0.2719999164578147 0.1239380823271213 -0.4750482196476305 0.199047389115228
 -0.3824848034108115 -0.0006069090194113099 0.2434358904492718 -0.1318793969304694
 -0.3823522161003782 0.04222943018961541 -0.2546289671701182 0.4765716204476853
 0.06292301374416073 -0.5330819953136904 -0.06403953677487398 0.3756170443130917
 -0.2265456956846606 0.4583736645227982 -0.001570300200072093 -0.3403945630002339
 0.004363268476507925 -0.2283391604427422 -0.04917106509817996 0.2649082416007905
 -0.2252507533527615 -0.1129025304797965 -0.06897103512959436 0.2715373685457226
 -0.4099270112700332 0.3756455520967213 0.02101177286264864 -0.04194121690104578
 0.1891727329913188 0.1708292883195848 0.2475366439514326 -0.2962924819173175
 -0.07479050380276701 -0.7830239589287292 0.5962168471533473 -0.2149726846639322
 -0.4101710185687937 -0.0664178289403508 0.3310724542278867 0.356359675085314
 0.09604843003847018 0.1724389456807185 -0.07343159968373411 -0.1583996074929923
 -0.2603479891959861 0.5355831968666922 -0.4563370613079472 -0.1815197975304233
 0.4150673301720577 -0.5882330562377288 0.04564296289924877 0.1784881839632833
 -0.6350663598365237 -1.022048755729801 -0.7203879592408444 1.495631121702094
 -0.9955195345876064 -0.2193985992146988 -0.06777084768469478 1.310665301829438
 -0.5676628200675249 0.7922732891907055 -0.2552088500952266 -0.6301522039023606
 0.007815463968252848 0.2202742374397503 -0.09667735162340677 -0.232484566235663
 -0.5177096420766577 0.6124208376881527 -0.6005831508078848 -0.3616481428777257
 0.003539814878490857 0.00117696693880296 0.09359776345755537 -0.1156864326806599
 -0.9204223461407798 0.2976372884515957 -0.1015416438459845 0.8093873679443221
 -0.1777075722926305 0.2191529162911121 -0.5136507698289928 0.5825549213697304
 0.0338318078640862 0.200134042624026 0.4741509083137004 0.103532373126961
 0.4028957313579956 0.1229547556255663 -0.1938551380950205 -0.2032341948094184
 -0.2193092465895249 0.6095911574558132 -0.2546174968694996 -0.3960098738237214
 -0.1301322900511893 -0.2496323812197703 -0.4642124100935902 0.5258690532247425
 -0.477395297406578 -0.3705478665405726 -0.5011227340093306 0.7888476535527095
 -1.150598986356183 -1.166050871139132 -0.4582601305698588 1.543625670763822
 -0.2396098882661105 0.2245136683883651 0.06390949322667083 0.01176838348044928
 -0.2507166815915379 0.1507210240453562 0.1400910544175392 0.07766286671892704
 0.2597535604141449 -0.3382015988487014 -0.1179138863766491 0.1571755192797308
 -0.1535931016291538 0.4350183346058752 -0.09495072964970774 -0.3510350707850427
 -0.1327658892707953 0.2217594042747421 0.1787057381072923 -0.06552743191348419
 0.6336977543848251 -0.1383695565057619 -0.001598291614652384 -0.2888850055363839
 -0.3928066571436959 0.3404790879405531 -0.1279958160527042 0.2296397820114753
 0.1500956654639962 -0.3351700904681421 -0.2966273914969944 0.3562988827668956
 0.07480698387946332 0.05160188672067796 0.2574456542496484 -0.1949001669932066
 -0.2008135113925765 0.3235855124509255 -0.02474338909592717 -0.1698884771354485
 0.4076992350096649 0.07335009843541267 -0.6906937081027887 0.1643502266607312
 -0.2196413571697048 -0.1991764054968474 0.01044378332902294 -0.1209045545348292
 -0.1152691655176425 0.1986245321632187 -0.06365473392325724 0.07207611282509727
 -0.1782444225435541 0.1185909521072488 -0.2205536652653002 0.2409446346800913
 -0.4418476467431597 0.5159418564413215 -0.6210132827538782 -0.2421803469098865
 -0.4003125476891751 0.1767374108257951 0.002718671497975608 0.01353987071102842
 -0.119034841643302 -0.3841548151530113 -0.02280759645781213 0.4603245297242611
 -0.3068078283811415 -0.1411078469891487 0.04742838814077931 0.2739146390421872
 -0.7430905831978295 0.06919398077897296 0.3940763410471773 -0.5510900377302589
 0.3679488499475197 -0.06976780083576173 -0.3873249389968622 -0.1965851264054224
 0.5622221539547554 -0.08294932086130297 -0.1545627859478548 -0.3257693420548335
 -0.02316514535533874 0.1737793127684015 -0.8495129055933233 -0.0610178584391688
 -0.1427120041261531 -0.1084339571613555 0.2225277225335386 0.01857764247828313
 -0.1047559961697 0.2332282958251898 -0.1729449617451012 -0.2005123126386609
 0.5531704173865789 -0.3372804194199801 0.06568101073120407 0.1439518106880973
 0.1361448787497503 -0.1010286634931203 0.2169104768436326 -0.3378603074584692
 -0.1967932355667995 -0.08945244434004805 0.6429074325735178 -0.1059792098381183
 -0.3050141202642667 0.3004673908958516 0.1306433394679961 -0.1276292799147117
 1.13227579338889 0.01838960218668713 -0.2757125998601725 -0.66058402182245
 -0.5228928098285978 0.2687244397011752 -0.1518725360038545 0.3613686850225256
 -0.3553729166494599 0.218222973714668 -0.01562912787192413 0.1845015935700351
 0.2352912846459739 0.2136304129248304 -0.02664480488272656 0.04954414711748485
 -0.0748465424588128 0.1036831256540461 0.2418198651972777 -0.2080637620802167
 -0.1321956365374712 0.4019232505865876 -0.03748008312904438 -0.5278293598370246
 0.2713629806556293 -0.2680593598531146 0.04773925484331461 0.1504019416168495
 -0.1425616983300033 0.1930201155170567 -0.2595549253082274 -0.004545799041977923
 0.1189240446752445 -0.06370181300445066 -0.02384752620398718 0.1184810291725513
 0.3404154438464318 -0.4853328955958992 0.2048117225696134 -0.2179637253398247
 -0.1086675568543849 0.2243336664593151 -0.03218125244245978 -0.6401619803166088
 -0.3933429483945277 0.3515022927044476 -0.1729435577823449 0.2891713518883713
 0.173691708883383 -0.07069051859628508 0.3201045022212042 -0.2572265426341905
 0.1294543008470101 0.1012188830593461 0.09354592042997782 -0.1879134881361497
 0.09412791519361242 -0.7530613605263636 -0.72738628252667 0.2471983414946185
 0.002789483367997797 0.06351124178743818 0.06669754683644437 0.09736663803854631
 0.5787962240805777 -0.5074563165707443 -0.06796123770035754 0.2752114684006326
 -0.2387069677704414 1.006486752568037 -0.142460633231556 -1.15273624391971
 0.3956446542399925 -0.585745767398549 -0.1946007047332725 -0.1221407910428243
 0.3243522497916139 -0.3796228226549433 0.2564833427337524 0.3483136916256016
 -0.04387392967616335 -0.2923356159799327 0.2488538800545528 0.1861384047897106
 0.4169070630560024 0.5225810750301702 -0.1819960066585438 -0.6562991072663819
 -0.1930627218214232 -0.002274532713950573 -0.7619461205367932 0.3379157947224984
 0.2402111545115799 -0.08007183022229515 -0.07363371538868718 -0.1764698968779758
 -0.3254326980894842 0.4438297865950351 -0.5363412915123421 -0.0858782126764407
 0.1817335567657525 0.06628110528035629 0.3346810855398288 -0.7441813952037643
 -0.02945972567110491 0.1107819524240931 -0.1693334603160871 -0.1765818794417457
 0.1300250966458953 0.5941606667212496 -0.1321086106654197 -0.8524748031087205
 0.4222917746738442 -0.3325099306859354 0.1346494024345263 -0.09597306182619678
 -1.014147113973495 0.08757081669785691 -0.1308184574286199 0.6972054710025113
 -0.08721437940268308 0.3851763648259348 -0.02726134449997083 0.3216317761422622
 -0.04845502967664236 -0.1349412213659142 0.04573490995764425 -0.008026666539086782
 0.2052076710302673 0.4712829893442823 -0.1534918402060576 -0.4852973837276442
 -0.3010967060694509 -0.1492358612403576 0.3132972345919988 -0.0651677078548282
 -0.1829627900918345 0.009704765447007348 -0.2655799814551106 0.3404428217225453
 0.1689208173068294 -0.1077237323537232 0.1058385175206397 -0.201491602797596
 -0.6770164085785947 0.8952936566116414 -0.09218042901818356 -0.1372269708966195
 -0.1182681498766344 0.001775414941004816 -0.05863882832181033 -0.0330270399276121
 -0.6155969480722289 0.3054456273775794 -0.0824376251300824 0.3513743065191528
 -0.4628478154469532 0.5966287943643802 -0.03854706804070394 0.09350697584161495
 0.08696825768246202 -0.05344300639591117 -0.02209060768806168 -0.1113702607306223
 0.2186636657806364 -0.9093591228193625 0.1491732022054343 0.4342621909125454
 -0.6621580524803202 -0.1875309795097167 -0.255794246940042 0.8980229817393228
 -0.07244023380542551 -0.1987678573451364 0.2855335696396289 0.06668143946535028
 -0.05799383126949859 -0.1908802856490793 0.102757608291375 -0.03357922457878222
 -0.04054074233017563 -0.1368705599485434 -0.2834585995471379 -0.02169749947829724
 0.2641168403800097 -0.4003004803780008 -0.07939222626154843 -0.04687375842063084
 0.3815541488618998 -0.2825208311534612 -0.09872739049580362 0.01563645669960208
 0.770529798880881 -0.3064735829455424 -0.4741849629022793 -0.6620671860316444
 -0.2468405379017383 -0.08602246565181433 0.5515552512447104 -0.4363588589987713
 0.5376175918376597 -0.6295816117218954 0.1533312428059357 0.3755952310021131
 0.9764657076858118 -0.1276670085624671 0.1358194803069057 -0.09395196237259074
 -0.1271984844394548 0.3748928107279538 -0.07399227409404956 -0.08835248609206094
 -0.4595508124577823 0.7692347497163761 -0.3819875770399166 -0.1197285919557293
 -0.1873603837723274 -0.4768447146120618 -0.005985476199704629 0.6274435119496744
 -0.1750254919693942 -0.2839216524199039 0.1612867820245988 -0.0307755511683829
 -0.4152509236084445 0.05162874529369199 0.07175642766544664 0.1340592044889689
 -0.1013724449501317 -0.09159667788196151 0.2043923635463292 -0.07870524723435407
 0.03381655861109407 0.3852314813197871 -0.004597010997474855 -0.104594183658957
 -0.07085045468767553 -0.05320765922821141 -0.1544520362272836 0.6278672568068041
 -0.09637967676350932 -0.0916646769809738 -0.04859402612504417 0.05515100586571903
 -0.3607362962287419 0.2237344570495833 0.2943310711694523 -0.3478295578499074
 -0.3234854363855856 0.8425477714084506 -0.1240005801568865 -0.6947915232806104
 -0.2717958620916471 0.02954260246094441 0.03307329561372486 0.1176084292073526
 0.006762020048009334 0.01103172931913805 -0.3208867789796612 0.05649090103089937
 0.05076895017260653 -0.1887566433002495 -0.1379806828593814 0.1678320072169131
 -0.376576953978312 0.6093147891598928 -0.24296080226689 -0.1378107345759395
 0.1917501546816168 -0.316364598077531 -0.1191574515881757 -0.1767176075228237
 0.2261195999803584 0.1243221722433849 0.07312962964777846 -0.2835101036495704
 -0.02579397241317265 0.01820880212356776 -0.6363347336782245 0.5225386976763168
 -0.04272932834140843 -0.1749460889652564 0.4141405287976391 0.05307022352944632
 -0.3670954846552834 0.03792872351766897 -0.2355350653593405 0.6365393602220032
 -0.02278994263691446 0.04054304391789584 -0.4832686734741441 0.2144224225036295
 -0.110776501345888 -0.1846155779467461 0.2062993493176665 -0.04075442216273992
 0.4482035902544609 -0.3675300596766044 0.1534305478099727 -0.1151462931701277
 0.3013809332750084 -0.5188863536015927 -0.3083864041575638 0.08020963733809511
 0.0001712925830318498 0.2694544059671728 -0.3917628957969543 -0.3574930839877816
 0.1439881459889141 -0.02925995626507593 -0.2243085151123082 0.1719893796578041
 0.3999224994232661 0.02236884377720358 -0.2604117439573855 -0.1050367357059463
 0.3187138316131959 0.09057026510101895 -0.07771062172541249 -0.4597769930383729
 -0.03889804686418222 -0.7610439255730788 0.1927008600475972 0.7107780913033109
 -0.08961843919290326 -0.1863393980400994 0.4950561292216731 -0.2434313957222297
 0.1993932320581911 -0.3637841130935063 0.222235118285269 -0.0802456560131494
 0.2153754969725044 -0.8471914701441813 -0.4597131420866795 0.9596211707157938
 -0.6976236555368052 0.2822936698278198 -0.09873745085727995 0.377694325918649
 -0.1879728543896253 0.8737638911235494 -0.2418627658923904 -0.5042091949410886
 0.09777990258577181 0.2040753339769317 -0.02303445026986314 -0.4926227525524232
 0.04362656412662592 -0.8230823710202968 -0.1089379264012946 0.388089309023182
 -0.3003088130048219 0.07782241420700073 -0.137063372297559 0.154974173815287
 0.2876035426563525 -0.382863675488171 0.2305270556800108 -0.2844788866783435
 0.8136017281045262 -0.2537711558964609 -0.3307286147912999 -0.5705633195617127
 0.145621155470658 0.2895196609355556 0.0788800994906793 -0.3047709277453997
 0.2663379304848421 -0.521395100643218 0.400811533209761 -0.06208998458589936
 0.05095062699421548 -0.6496205069392871 -0.2538579225738223 0.5898883847084347
 -0.04100257551143754 0.6356589620046444 -0.1346550521053299 -0.9746503621828392
 -0.01722046893985813 -0.1043950052973502 0.008325547580472705 -0.002068644365736607
 0.1731126915853962 0.2421341810565834 -0.6178188888639082 -0.1510049930457114
 -1.367840178047822 -1.095758531538052 -0.3274512379968686 1.94760779057946
 0.7140995025557664 -0.4247871131199162 0.03736158812923084 -0.5104278598309667
 -0.08047247788582503 -0.1667598774013923 -0.04594006425303091 0.1582063820557615
 -0.4635881954079686 0.20868423433122 0.009275401771895352 0.04966163921961825
 0.4021440370622721 -0.7623199654569536 0.5243648512397561 0.1302490239914729
 -0.3416832545003997 -0.7203515132229484 1.021229560718093 -0.167491600134906
 -0.2582251205154336 0.106015299649752 0.6535242677384853 0.03091895783178662
 0.7081601064923935 0.1397564163265188 -0.02608002713178749 -0.8466507654319917
 -0.2443882052570044 0.1178343996150882 -0.3875436429817585 0.04789737486902911
 -0.1542667815900448 0.4643910386317869 -0.09758583342351135 -0.2206613976816977
 -0.3837074208958854 0.2422055770014367 -0.08189546851546971 0.280513569921482
 0.2057763307772432 0.2139629492216105 0.1205884563772874 -0.4847609945460122
 -0.1275461532810655 -0.4342733511368255 0.4808778759431205 0.1905822553460372
 0.4788010240352216 -0.6270718079069698 0.01024998014858809 0.1582541039957343
 0.381258527253075 -0.3323287702339201 -0.09553141675244332 0.1901878874971675
 0.2609189640634246 0.1491143112494857 0.3363810348930876 -0.5113317829538493
 0.1865351863017652 -0.5645128208133696 0.03875734866181938 0.5793062346594857
 0.6156344680222989 -0.4874378146641 0.3041299006410896 -0.2848010639278709
 0.5611410409264759 -0.1325342941950471 0.08414078290791485 -0.4449530078210142
 -0.9621013439218472 2.119424023099277 -0.6735734677345294 -1.337432653662871
 0.255256788953913 -0.05856564298040143 0.02383422079010009 0.01374252836316654
 -0.3816954838558423 0.2610433154537382 -0.1629951972106473 0.1010550416965868
 0.2516498467317243 0.1241525241552006 -0.1586815668696867 -0.2922416145441047
 -0.395251325135473 -0.2113463766916876 -0.183999874308893 0.6197937930695807
 -0.4280255109498053 0.6415289517170666 -0.4802585215087974 -0.04057787349242908
 0.3302332307387224 0.5888931041863075 -0.1903207238500744 -1.060108437056875
 -0.002947723347993305 0.196767875425251 -0.09780117568676726 -0.1508975916187807
 0.3276845056190248 0.3417320740103533 -0.1113475012760149 -0.4440683280038054
 -0.0968824546813751 -0.05877041530267661 0.004244263336302572 -0.2192154338904624
 0.174935274527125 -0.2283833168889683 0.4417029345997505 -0.2799603453026815
 -0.01294853585947226 -0.5105611943369505 0.6467390346101968 0.09308417618086874
 0.5540156029974632 -0.4660664266075229 0.4085289583116083 -0.3304634055140563
 -0.3960426791139819 0.220331378845234 -0.2288449216625977 0.2143007929167258
 0.00347228870829238 0.4245722457627609 -0.03105420802660111 -0.2077619165488117
 -0.5805516115170094 -0.2963486913410516 0.03139315356705789 0.2584648267296999
 -0.4087383432050697 0.004776355274102638 -0.06049939609162812 0.1694548682463156
 0.8154478163369178 -0.3354680955153739 0.4470087363201006 -0.6875485640032704
 -0.07963125150269651 0.0156596714329487 -0.09016407870722 -0.03798772884459706
 -0.02026249978822772 0.1210664513692235 -0.1286240229471543 -0.01380012409978937
 -0.1393032978502065 0.1476940218189406 -0.0003961060134496746 -0.2519472524285937
 -0.08332961356459583 -0.3695802259085232 0.001511223348903686 0.4254039459381588
 -0.1387791459791505 0.3282236020736721 -0.04784406872170523 -0.0931189329573605
 -0.5789177345535307 0.0416197387207357 0.5466723558415021 -0.1665859551004752
 0.1584150503183485 -0.637336766189697 0.3996853969829753 -0.113596109210989
 -0.0627808759733418 0.3435927664507267 0.2165283037737861 -0.1227757033635102
 0.3582560844498925 -0.1435756149572577 -0.03574034262102307 -0.4167948036071608
 -0.0936340103736068 0.1520776669440899 -0.04235507260998468 -0.2678416264251173
 -0.01076196444997928 0.1615309370899662 -0.1500633881617644 -0.04196255820917181
 -0.1547283281520286 0.220581242744284 -0.2825764264083261 0.1264248167601059
 -0.2925765073998965 0.2998918910404931 -0.09502617077662859 -0.1419225654491185
 -0.6760825994086748 -0.138482212004234 0.4076186806687503 0.2774181498764435
 -0.2459774478482506 0.1039957055406639 -0.1379727126393715 0.3440124492605875
 0.1645078131123028 -0.3930264452674033 0.1516831165007245 -0.01588494218535328
 0.02271661806595893 0.2247804623308191 -0.05833413821488136 -0.2904964978063522
 0.07480180221553501 0.3014151905703047 -0.3482523298010798 -0.1225366375464963
 -0.007904184535310547 0.05185302186835901 0.002475431398800277 -0.08345273411352763
 0.5063721977808254 0.2354876169623305 -0.2466898779882781 -0.3588296695573033
 0.1208098637164517 0.4999515254116962 -0.01190859513352787 -0.3965660400471991
 -0.1132037996669369 -0.08162734399564621 -0.0840201443528423 0.1736392238501016
 0.6714587285583912 -0.829520294354393 -0.2364906450085271 0.9231567233841268
 -0.07412847907524188 0.5755387479873421 -0.5186707707583311 -0.2438013502369733
 -0.0130212911594578 -0.8187251703348066 0.3743480059568057 0.354432513222642
 -0.4528584248881001 -0.1387681499761273 0.3548503922005367 0.3722173343741458
 -0.1492903914568154 0.0470749533215746 0.1886790997527887 -0.1142590065776778
 -0.02222189767507428 -0.07744893281848123 0.02730814800711371 -0.01189412496089834
 -0.063811672448971 -0.1861452213427539 0.242033936873543 0.254681839484829
 -0.3271370846950741 0.4960785404010944 0.533761264454822 -0.2235495525920436
 -0.09645957568304586 -0.371715656033964 0.1582800628240369 0.3403076292600897
 -0.3711914079803175 0.8644599016358748 -0.02805224514621994 -0.738606991478299
 0.05473821021696086 -0.2679514905525593 0.006429441879808188 -0.05103735240492643
 0.277569319546586 0.0005154359995312493 -0.03699048499322485 -0.3255770406590244
 0.02649532485187333 -0.338485794854524 0.01732197296790317 -0.06702347152219226
 0.4858913205290132 -0.1921380249429982 -0.07338337290431561 -0.2352108705012177
 0.3067105351710721 -0.01247089337570484 -0.1118303365499463 -0.09103792161772345
 0.2683580934498083 -0.01687391607189502 0.0005706183286482098 -0.1609517723568963
 -0.4939051692638112 0.1161319651633321 0.008272908486707151 0.3191551737103807
 -0.1178562481068266 0.07767853439025395 0.006915167831562316 0.0246999094842422
 -0.6644724674151813 0.4187451286051782 -0.02724317008855606 0.1636225915005166
 0.08862206809742866 -0.2701914831079642 0.1574131548654438 -0.2184618034155979
 -0.01973534751411747 -0.0338658221071084 0.02713320441335809 -0.01615158569747318
 0.330651496872953 -0.6060503671376873 0.006557147303853149 -0.2690316837112195
 -0.3194668379657277 -0.4612536156669397 -0.1704814115521115 0.8164377565935631
 0.1914136397719597 0.1952237017934791 -0.01486955830218028 -0.3187092768363174
 0.2306818719119077 -0.3460220176486193 -0.2880904615482857 0.4957722286695404
 0.1629152530966445 -0.05569028097526858 0.04657228054921944 -0.228940470616414
 -0.2304183153824292 -0.1758716808511754 0.0560928693324681 0.1927668200267913
 -0.02619803191358362 -0.4578514522813274 0.1186996033654084 0.3151409565419309
 0.555965269522025 -0.2743085736820639 -0.2675377221324771 -0.07474356648210478
 0.4525280620632265 -1.190380537397085 0.8729919466901082 -0.3830451431024393
 0.2932338260591341 0.4169619068775114 -0.5214224801650881 -0.1262338882895882
 -0.1729052478356236 -0.510309017137203 -0.6484744131129245 0.6910759658346923
 0.01092213158345356 -0.2010427864866584 0.4650353627962475 -0.3704055906085645
 0.511228397599918 -0.240906236797343 0.1440740152460127 -0.2940400319762245
 -0.2243161306202519 0.3670016334264586 -0.01817925943082011 -0.001953630675465788
 0.1302169959392959 0.3394231323543458 -0.08509702845352719 -0.3866284489723599
 -0.06736118977587623 -0.1992038984350997 0.254578702566962 -0.04298849638126632
 -0.3902664640466346 -0.4069162922184005 0.477209560345478 0.1027451327794887
 -0.199010952897344 -0.6626972441079096 0.7714881636210674 -0.1939761306532507
 -0.4619481816425853 -0.576148708791114 1.030468638401677 -0.6195268238839911
 -0.3948390299146949 -0.08956012411051648 -0.00769945607068919 0.4266578894239904
 -0.148745870420183 0.03106765799056085 0.0509716635267745 0.0246358746713969
 0.4212755587014325 -0.1994499038989888 -0.0631028433584831 -0.4280675619472784
 -0.8680518652549978 -0.4884833149175405 -0.631371575356358 1.32368557082057
 -0.779384375873967 -0.5624242540303188 -0.1359700149281902 1.104432484379046
 0.04234797136693811 -0.5056901261805852 0.483739879933207 0.4319896095445929
 -1.074543727976098 0.06491209051431922 -0.2643413610353677 1.214473691189627
 -0.04829062410988526 -0.02701226722785494 -0.04401927813422642 -0.2336753197497826
 -0.224188199173903 -0.2231998017419105 0.3714592084543554 -0.1998847989988869
 0.1595633441462814 -0.3076752623534554 0.152308008867812 -0.4295912709015964
 0.6442809871493024 -0.3046680817664015 -0.5196336383548259 -0.05557747019595911
 -0.1596008052490222 0.6881464908286629 -0.4599824007723751 -0.2698971721396756
 -0.3206957873978724 0.1599844785984261 0.1065307283918397 -0.01944036705749029
 0.06646718238734343 -0.09136639797216435 0.3816370736108525 -0.4826056896527038
 0.3380185591953019 -0.8023905723904184 -0.2878504353657684 0.9483979401329991
 1.177687686746916 -0.347702037034702 0.2596210988010318 -1.144528234816871
 -0.1983440088213591 0.169286398727248 -0.1315714823295992 0.02871312541185855
 -0.2989283194690589 -0.1128294431998247 0.0443001373620029 0.2002723512511065
 -0.2887906132561973 0.3288830573668239 0.03564503675079356 -0.01874873901533342
 -0.07133231123458406 -0.0982898737393199 0.103579377437812 -0.05680046044576265
 0.0899661618769652 0.05252801803530176 0.3876323933783373 -0.3107543568104256
 -0.05529515692185587 -0.2012071367005971 0.1553855630963303 0.1185890800519236
 0.02278246878417334 0.6508982407815245 -0.07422490288751814 -0.32521128448756
 -0.6008520582817338 0.6937804570182233 0.2663034009496804 -0.3294759779433805
 -0.2998265484323753 -0.3740707624746599 0.4272543394642234 -0.1200952556486996
 -0.1336273073743343 0.1907470175587056 -0.1518158290527933 -0.1781139179399582
 -0.1814211169907914 0.3826537947815342 -0.134719685152859 -0.01027393223807689
 -0.2531109390302558 -0.3056892887386107 0.2499817536825446 0.3223007441050592
 0.01111535107784849 -0.0476351368853801 0.110640458149517 -0.1831479987228525
 -0.501897516216761 0.4994447492138269 -0.7523606468600497 0.0688079105023533
 0.4377950788748145 -0.1164096148877402 0.0211486833199431 -0.468903209014798
 -0.6430702521378791 0.3396765689163422 -0.1509979192522275 0.3450562332258056
 0.2081277073867689 -0.06605330489930406 -0.0152196479609282 -0.07788589692982996
 -0.1082252919873294 0.2271891176371106 -0.1033967640441131 -0.120491141811758
 0.1115214935758788 -0.1295662634327164 0.3027203578766443 -0.09432460974431922
 -0.7011915282664873 0.2851085226362096 0.2984169876935585 0.02173237009811869
 -0.149646962583005 -0.4323661906107428 0.779728109923029 0.1602372972513057
 -0.3147526967087406 0.4270849851839602 0.2419201891841926 -0.3633103193871586
 0.4498086018191274 -0.1060075339959953 -0.05453923339712174 -0.2980529232209771
 0.7172779860350113 -0.5794303990605386 -0.1316034411336504 -0.2485652920633211
 -0.1139495889801013 0.2998662079845393 -0.0877996317422869 -0.1004249792119599
 -0.7644592079161231 0.4921784117110754 -0.0283933375334138 -0.1252509948458305
 -0.2633541850470984 0.07859856416525593 -0.1197130865153335 0.1636840479278846
 0.519869981279207 -0.3995760478264185 -0.508338434242767 -0.2438815302595319
 -0.4434652723085898 -0.1881580870445924 -0.4416604012150112 0.7380809207550977
 -0.252522474248814 -0.1294051271555482 0.106425859821976 0.1270377720556802
 -0.01048674992449704 -0.3392065832879142 -0.01374773346560281 0.4136370694430096
 -0.181706919907416 0.7627171078607656 -0.6393335021771315 -0.001761278213338978
 -0.261158395845897 -0.4141445457287022 -0.06386658594028574 0.7964204675878951
 0.1302095991808499 0.210160016346148 -0.1292604820341843 -0.2027811833768557
 -0.5007377597744419 -0.145157558756766 0.4089226422525146 0.1654332474329183
 0.1075951809254791 -0.4124469922847052 -0.02577401735044741 0.1505869650845538
 -0.003702674441353567 0.5900006737545147 -0.1330331462056877 -0.4525280483922878
 -0.02205282275979323 0.1960580424791051 -0.2499092135340675 -0.09011700719938824
 0.373292312261217 -0.4373062020374166 -0.1470321121840196 -0.1423477907741595
 0.6572427974910954 -0.4240235538169261 -0.1456910360250646 -0.1984029632195239
 0.5455410235512582 -0.4552100365022542 -0.02772031141687613 -0.06872646202287515
 -0.2992000919429374 0.039264083196534 0.6388782806547065 -0.3073646190704404
 -0.584578878310557 0.2220794711089283 0.6793657693900964 -0.05063062207976145
 -0.4141053707699598 -0.2507714644115923 -0.02255390266825932 0.6174348425677273
 0.00875989251486853 0.3644051454802972 -0.3700243298230834 -0.1215973508337414
 0.1221911266487489 -0.02701969371332933 -0.051624831680271 0.1667054150236681
 0.3274839599800098 -0.2509959317647109 0.1359508789215814 -0.1504560083447798
 -0.275091257047856 0.791361646775944 -0.1535943625623825 -0.2290954394192373
 -0.115883554128307 -0.374162156733139 0.1905272150810068 0.4164824163432014
 0.7525365469576163 -0.3957393294074532 -0.3482617043580249 -0.1273434626375643
 0.239785753929503 -0.1493715054386171 -0.1726307454072071 0.2383150591812352
 -0.05803265160765181 0.5348492364990355 -0.2277486129647909 -0.06441106948532498
 -0.008599992865490166 0.1574161032558904 0.2212264843817957 0.04200801590389416
 0.7283043417923094 0.02971095869691142 -0.2191310625226989 -0.8242331176124392
 0.7920160134451861 -0.6211679359501852 -0.3119059132277766 -0.01375212416371547
 -0.5067169922518999 -0.05452005927706616 0.8825449582629121 -0.4922192362206171
 0.3504388984913334 0.1592384697614005 -0.2072965989856412 -0.05982745489179218
 -0.1333800224028208 -0.4146992399482325 -0.09399177224257968 0.3120230689297618
 -0.4283118940234314 0.2584340040795861 -0.05259439844974469 0.0759297820902637
 -0.2617474366668872 0.06940131233616298 0.004403995340100176 -0.01419081107274546
 -0.1282562777649426 0.1873165281900779 -0.01084808494992274 -0.1120658474422061
 0.102718900738456 -0.2737102383750962 -0.07873505577047479 0.1659421143714459
 1.249603702624409 -0.7127572283303493 -0.3363226252427715 -0.7242010678766722
 -0.07720270469450037 0.1178996046789402 -0.0113052830766081 -0.1615988159475721
 -0.380045521085514 -0.625771675920367 0.7964664671673031 -0.2078508603346394
 0.1641566563776451 -0.07875087605868866 -0.009416791859814385 0.4190631230415648
 0.4068791839608587 -0.4758857920394571 -0.1944536113786517 0.7106083503308884
 -0.08330242961373453 -0.1374042204583545 0.4102634965723205 -0.1152509255319743
 0.1506087892718439 -0.09798883857755916 -0.01550635613217778 -0.1208221006252194
 0.02597818077281097 -0.3853272717887409 0.2730880990689076 -0.0676076898904262
 -0.07300431658039104 0.1499488025979909 -0.03086010040200321 -0.2137570918369192
 -0.1442906426778484 -0.02468554428054277 0.3427380664264227 -0.3448482115719987
 0.00152734727833987 0.1625102610728587 0.006589344098617912 0.05817847196440176
 -0.2998265484323759 -0.3740707624746599 0.4272543394642225 -0.1200952556486995
 -0.1277122843578508 0.2527642994734506 -0.07034301281878719 -0.2177521058702603
 -0.1382027372306341 -0.07896738790728436 0.1519811631747423 0.09744446587994912
 0.37421856806468 -0.5250425269889587 -0.07535458400626587 0.07586992331775261
 0.5270345406313517 -0.03142040085861273 -0.09439178940923626 -0.3428363765880488
 -0.03012381292595509 -0.1714118555015139 0.06564072894870183 0.04789428624824818
 0.07459564254391793 0.2305574095518513 0.2265596764379666 -0.3092885244415604
 -0.04453719508989629 0.07121611329851943 0.04334582375455687 -0.114391559777097
 -0.6329958524132708 0.5258798799989843 -0.827332543873996 -0.005581779616687061
 0.238542921069697 -0.1912402341440957 -0.00112376349758514 -0.07358522498785219
 -0.7855319534544937 0.6911384743502558 0.2401437268356537 0.2212640110010438
 0.08145298030192327 0.1075441198533285 -0.03554975255455843 -0.2888839415933661
 0.08124606248415178 -0.3009894185032241 0.8242675711669745 -0.3889615629958572
 -0.3211410874055294 0.6339740784110254 -0.09532748306316856 -0.3960687128900403
 0.4626600385675785 -0.5782831813334747 0.001758791664809442 0.2888346079691534
 0.3872093148420071 -0.6736195865920098 -0.2876515298382994 0.705854760633697
 -0.6185667271125166 0.5104171988408766 -0.2139413833478732 0.416286785285951
 -0.0669514133696241 -0.2670540195392405 0.1119474062716538 0.1351389374691661
 -0.115460794814181 -0.3356966816617049 0.4619895141697228 -0.3891619673043822
 -0.07574999611010542 -0.0996124064310191 0.1275079000507908 -0.07971419059880204
 0.3075088986942749 0.3725435189635606 -0.2233034855034249 -0.7617527719066546
 0.0338896174368548 -0.1937171019205635 0.01735907515938558 0.1848149396792974
 -0.2417207392290613 0.5297001828070973 0.003324474992924693 -0.356595108643531
 -0.8030610501225303 0.531673232759537 -0.1715482280830222 0.2017410614742503
 -0.2820539076339724 0.4591831871309955 -0.3086106423553519 0.1307195754990131
 0.2077159201702705 0.4734774288484028 -0.2104234650046873 -0.177599527922006
 -0.3781555862266497 0.6220494743927322 0.1693622887692183 -0.3185446518177585
 0.1173399247338009 0.07045114917966061 -0.02668705086425221 0.02511335236913563
 0.3050806773530076 -0.05512343967982025 0.1558323743379172 0.1633668565960941
 0.4092405314845747 -0.405813425270475 -0.1900942532203746 0.3465272654798809
 0.2806064088497658 0.13413944186457 -0.2545947452362284 -0.04859358562439557
 -0.1348944611431481 -0.2205223938325796 0.3192706284957842 -0.06173586936492824
 -0.2790122395105468 -0.4825463543508072 0.9194753279193647 -0.1421411778543743
 -0.260483642824034 -0.4713919852084875 0.7065931415568939 -0.4751637656927409
 -0.1026048077162358 0.214271901096537 -0.1195569772833966 0.08968700035496552
 0.9382223107186226 -0.163915340419448 -0.04720373336675491 -0.7685876715411804
 0.1530709770325372 -0.1526748424299861 0.1129897774885228 -0.1010168684004699
 -0.9646749747368838 -0.5073370715779262 -0.1339299239905426 1.250668410776828
 -0.1416826023354818 0.06606111507634496 -0.1227306219311994 0.17308853239475
 -0.06174902677635137 -0.5666610024541892 0.1615217955386624 -0.3571614127149469
 0.1710355110467366 -0.3331449174255545 0.248398143692453 -0.2041531226242353
 0.08314923002040764 0.1100924161933693 -0.1510375591197029 -0.3373501083836513
 -0.06906346077171528 -0.08090988187527776 0.1717451649535611 0.05410800998549056
 -0.3064883008598054 -0.3127930898630484 0.1147305510695264 0.4088742139745691
 -0.3674924729597168 0.07056289776079466 0.3277410062955916 0.001901948422906717
 -0.006255398994698975 -0.06595597029853921 0.004548415999587745 0.02979425136267009
 0.5184248509119987 0.2263464254028127 -0.2947029499429563 -0.1611818499171535
 -0.310881959270489 0.02690664895205415 -0.04118226328579177 0.131330783130635
 0.104211702277549 -0.09839842834032006 -0.1784033396449945 0.3315096904531849
 -0.08157053140489358 -0.1034841733137083 0.07977134542832405 -0.01680920385314974
 -0.4642673720802207 0.05339891751780405 -0.0218077711158961 0.4680497034192385
 -1.09947300623404 -0.6321043510793301 0.01951309721183619 1.495667850997696
 -0.1918275445169145 0.4661136004390002 -0.1344019915559521 -0.1402887108884085
 -0.7364490756322211 -0.2401796956673413 0.1332246207520387 1.025434632118029
 -0.301968250463274 0.3690206238356704 -0.3929697205950593 0.2596100661183696
 0.2501376108262081 -0.194537372283579 -0.04825600556375326 0.04630740192446654
 -0.0730732503189355 0.703875136767996 -0.5860866873663272 -0.1215106497753807
 0.07678827571509154 0.4315624120840734 -0.05103100567147051 -0.2274725213090154
 -0.1777931206605845 0.3024960307411132 -0.5797298925615596 -0.2361509983806142
 -0.2703154596196616 -0.1112075668946471 -0.01574648135954199 0.3863108994384788
 -0.05173210773444768 0.4821308024366006 -0.2210452978288495 -0.7658532830926033
 -0.5237805408286116 0.3974482158636696 -0.2277404790010868 -0.2275492304974543
 0.1407138197869546 0.3630517381988895 -0.09445835173353662 -0.1795386488687059
 -0.1415136248563019 -0.4289567464117746 -0.01702169427091337 0.451294010198615
 0.7342836354133914 -0.01900909626031571 -0.2529861480972374 -0.430719989984783
 -0.5120126156292156 -0.3807851375626206 -0.2277054103362387 0.6931347266334973
 0.2878282377866666 0.0684785875505363 -0.1833049973241185 -0.02609816920125049
 -0.1535590313872285 0.2741805273812255 0.06949323766212648 -0.1556149528803652
 0.2132076380248917 -0.03706545583934031 -0.01900994194168088 -0.2937843045004515
 -0.1397861598256658 -0.4806601289560053 -0.02694689966698308 0.4384316792935721
 -0.1614759213003251 0.6906778435087848 -0.9070985215809624 -0.07254581821066101
 -0.250636237087611 0.08597568199541962 -0.01443763501021567 0.2421665308525758
 -0.2050077882621319 -0.1060449784024371 0.1817342239578447 -0.0210067448445988
 -0.06687951049259191 -0.07545466963429956 0.02876898249633197 -0.07679717886985565
 0.3414961670264657 -0.07017239243849878 0.1610786867270934 -0.3618100660493247
 -0.4612831892734507 -1.153543194456702 -0.06567691619576926 1.277449140173755
 0.1935832491368601 -0.2102835981232511 0.0001663099756957426 0.0837119791605192
 0.1289236555368105 -0.0541612628292172 -0.01603395100717234 -0.07843853574561152
 0.4348899866807828 -0.2638534018199085 0.4744010882687449 0.04215173477858158
 0.04093897316538389 0.2218951333435807 -0.4492108011349489 0.1400188302464556
 -0.2501882115408722 -0.03365419269735852 0.373177877265224 0.02865191047318956
 -0.1699122025738423 0.8915258212620518 -0.1305560145487719 -0.3644366425659608
 -0.1309212251815265 0.4457622557325641 -0.1593978708096659 -0.3086042498263389
 0.06648630039071601 0.2551177010394559 -0.05114252353826623 -0.4202929729517525
 0.2306394991098655 0.08961833366758545 -0.1648736887658961 -0.1825661043438248
 -0.02315634672778418 -0.0816055466460589 0.02954432326867618 -0.01330726677407981
 -0.4117082808224504 0.1423032970390603 -0.5300802885286756 0.3833096405314272
 -0.04096709152284255 0.6182887547113896 0.08386555476344862 -0.7157568056518264
 0.298365166658819 -0.2305820992148248 -0.09939896125928509 -0.2318918903242757
 0.4306707551017667 0.4027584755255479 0.1058605531210834 -0.497968299224912
 0.1047529734400506 0.08821549647541647 -0.01855470271269684 -0.3569591847446809
 -0.4580526518063489 0.3396058685722744 -0.6796515710309771 0.2118616957170848
 -0.6268546219626531 -0.4193854833504314 0.7715697707490815 0.4587031263246676
 -0.05861444214019586 0.02730549850604644 -0.2896280268500591 0.281883744250108
 0.8341974453844497 -0.119415506169005 -0.1365614002874839 -0.210708410528032
 0.4502174874893753 0.09619187408095722 -0.08289540109515742 -0.3649654863597663
 0.3101030156300897 0.3841462042786141 -0.4478726627581108 -0.3666178027029452
 -0.2456273578464855 0.05089517482119488 -0.3765373523786885 0.207282019866966
 0.2338451000160585 -0.199328465258275 0.1429544538811131 -0.006201238821082327
 0.06901699197463981 -0.1855216496801957 -0.09061260205234395 0.2096344712572384
 -0.1491968183412493 -0.07190492999926851 -0.01985447904785662 0.4847205129148523
 0.3831190676269527 -0.1443625037664842 0.3505354759495118 -0.2263287341102926
 -0.3376882947763842 0.6220153607048898 -1.383657201628647 0.1650052851510421
 -0.330252374999925 -0.2440624081921423 -0.05948871179436436 0.6076840482390347
 -0.06502888706681888 0.2707159921183268 -0.0465085557969063 -0.2640340818757481
 -0.6014779377491511 0.8749104931611621 -0.1158519288681629 0.005063369413871935
 -0.01559828893853408 -0.01571690941480033 0.01097669493376363 -0.003421552784628904
 -0.1279675444202855 -0.2245503688410665 0.3099986693711487 0.003335980191791967
 0.03322979648686344 -0.5457694057854909 0.1797591287215666 0.4308823575824149
 0.06661550176853313 0.06475463512101538 -0.38991395409281 0.213660979504974
 -0.1613203624873581 0.3217041030106683 0.0253308493250457 -0.1186265411173098
 -0.1071520200582981 -0.5954051152671064 -0.07155174707351444 0.6466596607596667
 -0.1432767311251358 0.1360283523591384 -0.04502835374818379 -0.05116586588487415
 -0.02320470744711141 -0.05304679268780708 0.2344433711242063 -0.3997526804049956
 -0.1924980070925278 -0.2719274089747155 0.2835391021504151 0.455775689862991
 -0.02105878634138016 -0.01887285122891532 0.02640877146405855 -0.0153227931929961
 -0.02125825179394676 0.3949773703413677 -0.05504710852235031 -0.2878775015933741
 -0.1782177761391934 0.003865040887071239 -0.06740357493464717 0.02735611586055988
 0.4314376565495133 -0.1433272095073758 0.1615250378016233 -0.2255912355790392
 -0.393945192437886 0.4596371333216458 -0.01126617345783913 0.1801055061808943
 0.01075103196991332 -0.6054259627658095 0.296558429872832 0.2567391718034933
 0.1060074341814605 -0.2848031185535576 0.2991538169417149 -0.02633175556173805
 -0.1150251975418536 -0.2328323871403012 -0.004868286184050539 0.3791749892253318
 -0.1487437413090929 0.1427784063967951 0.02326828735444148 -0.4621285908872472
 0.0361905672158226 -0.1329377378564894 -0.5699540130730599 0.5802334341786078
 0.06434195035005824 0.3033807499347442 -0.4330729481813115 -0.2658351713607462
 -0.3869267921276777 0.2591778686577444 -0.1734168872683139 0.1747613490403161
 0.004104609140086657 0.2369058054185234 -0.06510938347164123 -0.2760114645327028
 -0.8388497791561217 -0.2475205798422213 0.1281118580709418 0.6099135506630941
 -0.7653943465349968 0.3937298306142805 0.07179401504818153 0.1905344101904599
 -0.1136529361938912 0.2296534376260012 -0.009644120776961983 -0.09667963221105193
 0.168013713133137 -0.4616932700276405 0.4854252082403243 -0.1622871633603456
 -0.1646081851442885 0.2148780239889706 0.1148225878974842 -0.4067431131376165
 0.2269825101708405 0.2144083705003834 -0.4668812249282019 -0.2739324667973821
 -0.289827989522699 -0.08264959252294841 -0.03012252996890172 0.4121867006964246
 -0.06087145645302482 0.06259765476016012 -0.130907037569217 -0.08894428753640032
 0.4600741473597043 -0.1737825651448068 -0.5035851204021159 -0.04632762626487413
 -0.1911631617726684 -0.07004010711171207 0.136491094697545 -0.02953387117517602
 -0.01087298391930078 -0.5651377902711348 0.3332709739977769 -0.1460865085335989
 0.2113241892868202 -0.2150502241460505 0.1047480037224758 -0.07170999421615426
 0.03371546034452833 -0.2503676267799522 0.45606792391364 -0.08728928064111979
 0.0993773414718376 0.8350637924594011 -0.07654546474730273 -0.7795621457999298
 -0.3388221657542619 -0.117848387336008 0.4081539081928732 0.0271297063375448
 0.1906762026917851 0.3878199949661515 -0.1037254822186766 -0.1938812816181717
 -0.2854091781769221 -0.1186529986081792 -0.003763163035942428 0.1999914516311504
 -0.02980850738257984 0.1435515432998274 -0.1927864289529458 -0.1806520751786655
 -0.7694122949773927 0.8424572570437586 -0.3761174685709504 -0.251386723678405
 -0.02437771248357893 -0.2164798872220729 0.2170435683430111 -0.01413699239261371
 -0.4858379461233419 -0.2839989328908433 0.1673326753389468 -0.05365187452023038
 0.007373504606065258 0.5522663630502888 -0.1534119964119654 -0.5227662082733172
 -0.2073235052335552 -0.09775822015534825 0.3510368031118047 -0.3536412309249244
 0.3078341297295173 -0.9561510569250997 0.1418532095060827 0.3378958652084927
 -0.003634435497321338 -0.3339556838682665 -0.1471271963194093 -0.0907216805049495
 0.1991510487431771 -0.3993169510147195 -0.408467774706582 0.1748253400616107
 0.1154726326662171 0.5488858209402121 -0.5691603054807369 -0.4640703976867147
 -0.6886018417391366 -0.2921364321668731 -0.2842019135747209 0.6941961060946729
 -0.8831353366406108 0.3032484714650047 -0.114947831663154 0.5394109585177336
 -0.4141053707699607 -0.250771464411592 -0.02255390266825927 0.6174348425677274
 -0.03177765192531757 0.04474517052457943 0.01819308623173441 0.1910120881284265
 0.126741558232101 -0.2247646632761039 1.044319558176494 -0.1945454683072562
 -0.5605927618220781 -0.01343537616339589 0.132627448365973 -0.5434087752294949
 0.05245508459117632 0.1872398365679651 0.08305043956513168 -0.4849526362302284
 0.4174183490512217 -0.09113421233230239 -0.05405718894846154 -0.3406821529431636
 0.002212063061949474 0.6453272210931834 0.2458446816542676 -0.5622983309463209
 -0.08549280238449948 0.2541660082311077 -0.02217209531596221 -0.1689420238502953
 -0.1745210027172481 0.5269570797398112 -0.1282241989784889 -0.1466903377901749
 -0.1952598110257391 0.06825499359090181 0.05267322321258586 -0.0003790432654897929
 -0.3779895659940264 0.9113271927230063 -0.5556238498392697 -0.2842507837826599
 -0.09372362626164342 0.1887608134311207 0.3644316866550664 -0.5237138676801582
 0.105511591325506 0.5531978345385149 -0.593492565947356 -0.3482517682672165
 -0.0629994441679069 -0.3586253468239383 0.2189040265917483 -0.05194265395792732
 -0.2930116181963118 -0.8764084482773347 0.860460866897571 0.3942159513880152
 0.09511526379433004 0.6182702005834914 -0.2011397389575055 -0.6419795545782481
 -0.1082385884930788 -0.06578436000833612 -0.01254079477024163 0.2260792148965526
 -0.5431113942847554 -0.4028049943759424 -0.2032590045496687 0.9452162417253029
 -0.04225271818679446 -0.1451750397306734 0.3699218287582816 -0.3042062225140785
 -0.08057400649064815 -0.1161050272582697 -0.002648101178977272 0.2534843379656298
 -0.01885373294160438 -0.4564509924525402 0.5746850207145197 -0.1105456487774016
 -0.1420745156643093 -0.2154013599763044 -0.1216955336700589 0.1103083720617162
 -0.1538560629922771 1.107248665207299 -0.4110764944197194 -1.197947043701407
 0.2637622694428607 -0.1241286643225158 0.2146592666044512 -0.2529117239541349
 0.1158310188284786 -1.146975361249152 0.5273026449726324 -0.314422457494879
 0.1510768993773332 0.1250527167372807 -0.1181360444745644 -0.5228338223711461
 -0.02330217755066624 -0.06189949287688627 0.02736295755836517 -0.01859140951698652
 -0.6631240217760503 -0.515456345937646 -0.1473864345662389 1.072165151105993
 -0.08413281692916137 0.09100616756920607 0.3137943566055016 -0.2258063910001665
 0.5045189430425246 -0.5141593931679175 0.1352840949939599 -0.2981571063218988
 -0.1019077385465948 -0.1279969132922567 0.1978994365807601 0.1632545169947079
 -0.272967386722857 0.1826878728682097 0.009017679154945217 -0.1384411317914366
 0.0008332284919269476 0.01290162096620783 0.01812174319085534 -0.3463395795458862
 -0.1077355644327601 0.8163647012393074 -0.2124314976428898 -0.62911983846005
 -0.07713522681772379 0.2385345258677395 -0.01802109872728951 -0.1619743863850035
 -0.08572056639801408 0.6489712140560064 0.1731679606390497 -0.8622993096916376
 0.2545491558113473 -0.1212501435112985 -0.0117190805566298 -0.04152389733588719
 0.1923052512590799 0.4522127947702975 0.1521680117500941 -0.7103382215441639
 -0.00278176142469742 -0.2275205890553949 -0.1692522027129678 0.09942290009992649
 -0.5214441756884713 0.6434144399480963 -0.3133922168956965 -0.5809419094799636
 0.3151153463998433 -0.2302379298265212 0.2424053191963453 -0.1851999465455243
 -0.3132130449741798 0.4325089630208036 -0.1573022367129882 0.1028657942895023
 -0.09164907808838924 0.08875210373941118 0.6795423708272159 -0.8534812978393096
 0.02016185965466041 -0.1483720897621976 0.4754576012883306 -0.3303309025552161
 1.622336361100454 -1.186890256394195 -0.4420757336481734 -1.26214977010157
 0.09872463944080159 -0.4917225826743153 -0.1540139295000494 0.2985845659584469
 -0.1059874194882515 0.6498647554080632 -0.419738571386442 -0.246987808108232
 0.360117523156461 -0.374556747129793 -0.3708035606755608 0.7550454065805998
 -0.1745873764156989 -0.8071664422293821 -0.2752757167711673 1.076549769256974
 0.03129088332054644 -0.05952856854056553 -0.07637565956154221 0.3828905805326978
 0.3325367265443779 -0.2366501019687104 -0.0911874140507975 0.09315383350664268
 -0.4624988941833912 -0.02060016525560621 0.3006264546241903 0.005520942939182252
 -0.1755169528766933 -0.2949410381603291 0.1420836929723191 0.2520272946065192
 -1.568334061277518 -2.032917027803097 -0.710405053705581 2.249866975201789
 -0.5966084040105241 1.72266750914893 -0.6532198078541827 -1.071072394782028
 -0.2967143755573599 0.6462523362809183 -0.101079656108217 -0.0665124984683884
 -0.08536894607266818 0.1719541936391666 -0.01960796732084857 -0.2869126929864855
 -0.06092616483553291 -0.1742976002195664 -0.01251211485554935 0.2389940596501264
 0.001464101015204345 -0.2780613324747343 0.07225135577161654 0.3428574259994238
 0.2762884367013732 -0.7701136630024645 -0.3060346789467036 0.6383533688523719
 0.2934709469128307 0.06676004743855714 -0.3253707423856402 0.2131286043349482
 -0.2528620268094511 -0.1680652861545408 0.5666941298851664 -0.2383690121424931
 -0.207657227184009 -0.282941054018485 0.5636707281847919 0.4949881768187426
 -0.02423125507636234 -0.1482958773944636 -0.08941742004672124 0.1789413492293932
 -0.292899764680685 -0.270491727460448 0.1473656671000676 0.4744472568635785
 -0.1289894156755002 -0.2334925900649738 -0.05586649971835674 0.3835185117575737
 -0.1245407178878612 -0.4082154246494323 0.09860914710694992 0.3377907646720213
 -0.2103715714544866 0.3022013076851502 0.2463946986061943 -0.06956078653202508
 -0.254446079154949 0.517926290134444 -0.05539124686257402 -0.1261896397086738
 -0.01476928894530355 -0.3448769865829969 0.4702680591720864 -0.3294513082822046
 -0.0182949052940152 0.4391111370063236 -0.3263856439212341 -0.6987036113541485
 0.5560945907972371 -0.1868498426168237 0.06040867512541226 -0.5595491454075735
 -0.06803436009011572 -0.2607958599735771 0.3137082414621172 -0.0262193962735089
 0.08429499458472949 0.4382130871230979 -0.5080233687587488 -0.07823500709378313
 0.2910286365507206 0.2671378430830026 0.2685006569943547 -0.4915848942332161
 0.05497732204833899 -0.1679105783444262 -0.1008383397114166 0.1926205878198607
 0.5233428167473079 -0.3414225842029404 -0.13686195231903 -0.4050002721186973
 -0.3765681589372335 -0.4672777813152176 0.8403827999802356 -0.6229767364918209
 -0.04184069003607711 0.254831342540806 -0.0127050760809849 -0.1030248659419453
 0.4083280565225526 -0.1919749425177784 -0.01148784620736521 -0.1660382127128989
 -0.3017996755226163 -0.2588684793933063 0.2323571393664522 0.5414910704591701
 0.3796261006254842 -0.4466573584064749 0.03415344386213054 -0.2387489533323592
 0.3764038170931862 -0.1808123823887375 -0.4379022062906638 0.3534219108876692
 -0.2900136665058527 -0.1124881113010575 0.6070970641565894 -0.01902723350647823
 -0.05597820644756462 -0.1228394839223764 0.07592451132402263 -0.01652892785917827
 -0.05539634347010938 -0.5123287468127904 0.4584022423557685 -0.1403430325470877
 -0.4134725985060442 -0.1979987910542121 0.2954580423158762 0.001136963660935753
 -0.01291739515411537 0.3634523640768677 -0.356980949314951 -0.572768300658297
 0.1186842234041388 0.246962735986776 -0.6868622568492977 0.4613266751477585
 -0.3158545753550678 -0.1588775704409467 -0.04937096721509967 0.4222902871567928
 0.5302047214656601 -0.6342816128130279 0.03482482010394795 0.07431347713313353
 -0.0316051254179232 -0.8448668499482841 -0.29829730880605 0.7472032425785675
 -0.1545331308418045 0.3411646886127425 -0.0358688043929911 -0.08806091791051233
 -0.1557504580637771 0.4433465019185133 -0.009650478643687017 -0.4057150149119446
 0.6898157567622871 0.08342596023791747 0.02747638177968865 -0.610395691928004
 0.0194466136648349 0.106593243899189 -0.129486116749023 -0.03726782020469452
 -0.4294140156928863 -0.006179625453844363 0.06539870146065388 0.3319097221354835
 1.981186599232798 -1.291189651160201 -0.3424685863892206 -1.314094213886198
 -0.1992493607873949 0.07346325916605985 -0.2077075722424346 0.2265324339368268
 -0.004006996095744512 0.004122700243393045 -0.04509812008883332 0.02000751317773071
 -0.1954340865044035 0.2722598420552997 -0.04168508554378926 -0.1802941499411883
 -0.6714833075301374 1.089639254187101 0.2247714534822053 -0.9984608306410317
 -0.2581915054762264 0.2551084376751577 0.2366991353831247 -0.2132748386075813
 -0.6210071292583745 0.7881318812169216 -0.06207984859769189 0.08640926143687058
 -0.3903507039775697 0.3196677632920661 -0.01934789357260093 0.2294527949073471
 -0.1014884027299557 0.6097241523070644 -0.2058377041268448 -0.2496759919302165
 -0.01094462920305798 -0.143250417752438 -0.05062576200943122 0.2565542627504263
 -0.3603545873020301 -0.2974514393882156 0.2602897808770317 0.3384769656345896
 -0.1949574259054279 -0.3132651216393456 0.4200875542584047 -0.2369358096082615
 -0.4838293750008065 -0.05239897357937479 0.2762361449454644 0.5044721779028506
 -0.4013456405404272 0.4663094564837135 -0.271576452977339 0.227130620305199
 -0.2273864432272926 0.03322892739794351 0.6522732000971655 -0.417948936696771
 0.6298941955331441 0.264034059778053 0.03347742795868369 -0.7949431576277316
 0.8699468617010416 -0.5377788412048889 0.1119922034683268 -0.03762977196214447
 0.3320266150860438 -0.3136467908068573 -0.1559171832387317 0.3723447515102854
 0.2304219232859777 -0.274695368125613 0.02472922982687121 -0.06471287371629825
 -0.04537799938953309 -0.09707569699093271 -0.004047692011211204 0.0958326084243023
 -0.5930333940212038 0.6368283267652027 0.05358357935958984 -0.3793242710495437
 0.02577269401595406 -0.3799332517430586 -0.3320617453291744 0.4845388861307292
 -0.3434579760587013 -0.2361747146641938 0.1187593038328108 0.1583358358453027
 0.03691290533180442 -0.8656889764747959 -0.1494728080715705 0.8270209719582799
 -0.202898398237063 0.5888229232880975 -0.1260516076780573 -0.4906711616000876
 -0.2089476303917925 0.0582069655008347 0.1858385085428758 -0.1788394167321841
 -0.5439712923113905 -0.4377869647466678 -0.04649014617359731 1.036994002005905
 -0.05045403798135053 -0.1133343847443584 0.06747885037063081 -0.04502109853198379
 -0.8019590666490927 -0.3267471440568394 0.5634887686297008 0.3176354395669385
 0.0481950530039757 -0.186109728143986 -0.05882077849140781 0.2579033765749221
 -0.203303609911698 0.02267336604521047 -0.00742640265396279 0.2494126744112989
 -0.3725316389527862 -0.3566920915869207 0.07676276717039342 0.4400876679835168
 -0.08036463524037292 0.07679390282137738 -0.03555736945292107 0.03455795452138005
 -0.1546775680633266 -0.07259763200933406 -0.05446766119331056 0.1973259495211131
 -0.2259976557159592 -0.3639066577146532 0.6477123252373186 -0.05394461168102583
 0.1906132076333827 0.4446347220919775 -0.1000315248206815 -0.1598331774635866
 -0.4853481693599545 0.179706905894539 -0.02499412984246086 0.3186042543228952
 0.01084697440788047 -0.2007968344686959 0.464997349485476 -0.3704528892079211
 -0.06255152816841607 0.2257685623607229 -0.06782237226993891 -0.07223579753584593
 -0.08078141598734546 -0.03990529845135013 0.2434735614096853 -0.2144412038712017
 -0.08757074348912403 -0.08780741462803578 0.1767361317399407 -0.03542211781977552
 0.2124839842463026 -0.203368094419715 -0.03090778540319813 -0.06104137129549604
 -0.1321059437625366 -0.01349090775731142 -0.1261436562969379 0.1037889773022354
 0.951045242406376 -0.9580665074495033 -0.6032141719269977 -0.4003488058760964
 -0.4543102223954654 -0.3000367027379743 0.409989800979349 0.3477827838658096
 0.01093669218501917 -0.3377536609732638 0.03722985406275584 0.1847223621013165
 -0.3460877960024862 0.5608003496098775 -0.4089509584019716 -0.3464208900526125
 0.01760438408102701 0.4782365545494652 -0.02888739401608996 -0.4314017671738701
 0.3422123063140542 0.3384684957183554 -0.02143425059976746 -0.3719230568671364
 -0.3155403384896918 0.4730553159688136 -0.03544674651163593 -0.2879963719217496
 -0.5451497572057794 0.5649896355744176 0.3838132407466641 -0.09782837857070827
 0.5021183156492148 0.08356802100270735 -0.05529865785547312 -0.5560137252292164
 0.4376883322734726 -0.01196087253543471 -0.1137473050572561 -0.3856500001677927
 -0.3254729104460403 0.1240832947740353 -0.09103771103079195 0.2229006985889625
 -0.008197074805081455 -0.1032623055122743 -0.3222839556331607 0.1483361493012651
 0.8032647937007911 -0.5212467698947516 -0.03506191454863698 0.02811284166776793
 -0.800926395083689 0.6710043662484751 -0.3671474042521099 -0.08029712622811966
 0.3001210585859547 -0.2180847467345758 -0.1127588191720639 -0.006121297657050766
 0.165089089273798 0.199925282034866 -0.08738989018678149 -0.2664277576221133
 -0.01078676082273931 0.2939120488041184 -0.04239860751699443 -0.3518512425931228
 0.1011971828199328 -0.2539860594574123 -0.1554409876294847 0.4081569491724665
 -0.1610017526785452 -0.418700261167976 -0.1307495508513732 0.2964919233773194
 -0.1106255261078851 0.2221008823080268 -0.03296281974141651 -0.1395512787757452
 -0.629067452590341 0.5314931498434935 -0.2044537250562572 -0.2374404533372599
 -0.3804737342073 -0.1412713884181363 0.1844755660267016 0.4765889267519728
 -0.4960357209611405 0.04079749680131755 0.4908205900761803 0.08178714333917149
 0.7350928270401451 -0.2699684158866089 -0.2840890539580824 -0.2206047743074841
 0.2193579118798284 -0.3408787887897314 0.2476220186429229 -0.2985126590448969
 -0.4797515352316547 0.2321645745541094 0.01264858920380738 -0.3528943582584174
 0.06629389471234673 0.006959549376472494 -0.5360300215200612 0.2848355702875771
 -0.1397230941140167 -0.1457600823656881 0.3383157842416499 0.2806070718354007
 -0.1076624194746148 -0.07960380485931771 0.009072817313498509 0.2304836164783466
 0.8151399322299001 -0.7123386316800864 0.06699219105977708 0.1020760270525747
 0.7675078948820059 -0.324110208639809 -1.002656135360806 -0.1051398943640961
 0.6519161861231607 -0.01557888991593626 -0.06483223656483596 -0.4902711213664404
 -0.07248051909380589 0.4458938345334722 -0.5949116053610837 -0.07368998658474521
 0.117954422129544 0.1812349825117711 -0.3977661197633439 -0.03418956812378948
 -0.4058317191089768 -0.0583027136853884 -0.08851177369265954 -0.08277705051493239
 -0.1212829780833935 0.3572762454014946 0.04120870044245431 -0.003298368890196938
 0.06519527935117159 -0.2177420889809453 0.09629655111798412 -0.2964601837488957
 -0.4201219956993701 0.4080158670002871 -0.02760057672033772 -0.2408390247628764
 -0.1741163584986356 0.1357468069558212 0.06334512942369808 -0.1377166102405668
 0.6909875608616642 -0.5121684891000302 0.187825330881276 -0.3479931307270204
 0.3319334368083997 0.1807187073325159 -0.09220593901292105 -0.4913599228705152
 -0.5097287995423783 0.5242536418929669 -0.2328564885003943 0.07772720360257419
 -0.2081872336800618 0.1155722783134357 -0.1492914670014222 -0.07713286486152271
 0.08854930444746613 0.01227379211474404 -0.07304515103510573 -0.2387350913263688
 -0.5909190328472103 0.970321221547691 -0.2798845593644012 -0.5286568898757851
 0.2408684936945339 0.1857825476319702 -0.1590948088735894 -0.04185321711496713
 -0.09574272199112524 -0.1924364619400054 0.085219444489486 0.3645028198722539
 -0.2624819227789278 0.1314334956366032 0.1720555329036806 0.09615809982604077
 -0.3395737749525398 0.05077069974912184 0.2092580633277594 -0.1130570257468037
 0.3141880893175364 -0.274853924081454 -0.1685112497154384 0.047506514430942
 -0.2692880795164341 0.01665284970651915 -0.06934848238207843 0.4405624868580681
 0.6806035138251113 -0.6043663876744492 0.309665252691436 -1.074810078309053
 0.4680841886846723 -0.3468636591464169 -0.05307124337016427 0.3060134018729735
 -0.3063661605554863 -0.3817248467178651 0.4399093357305713 -0.1203032793683571
 -0.3052619792452582 0.0524556498691072 -0.213043317722149 0.05601098716207623
 0.4414539247893257 -0.2181778239976284 0.2368133648733613 -0.2473859177463664
 0.03887425061902012 -0.3476871838312224 0.04251131386580884 0.1948643210925093
 -0.2301403432430605 0.4027171984163257 -0.1261046699292226 -0.4454488772237557
 0.2928702410924461 -0.2109230042374401 -0.3329357612317558 -0.2119504744805243
 -0.3413686017074397 0.8470320164004395 0.2072050514077765 -0.7827422542075894
 -0.241051509337804 0.2096201576900206 -0.2625495481284026 0.29727407913407
 -0.7877187478380503 0.9520950680394942 -0.2809950700167508 -0.283511464700084
 -0.4231728970739314 0.04473948192318329 -0.1669965606424995 0.08320183081991739
 -0.1958900715320707 0.5603953300787341 -0.3030819004384046 -0.1750156414935641
 0.1572859085920483 0.05522619252165587 0.02940690816555657 -0.1991499090577936
 -0.05947451599834622 -0.2403410291039634 0.04434486006201792 0.284831914401744
 0.3826885398804512 -0.8249622401341986 -0.7418893638210909 -0.0584731176478618
 -0.3292132652462819 0.1311315327689647 -0.1801175893025976 0.08374254438243676
 0.14429335148108 -0.5902240519851614 0.165609325427152 -0.05215550279054817
 -0.3485577780872331 0.02469562507167034 -0.1405844074586214 0.2723687629107748
 -0.04606458729443535 -0.06047081253763825 0.04215827433367108 0.4808859245299115
 -0.102415178050506 -0.1864564858002113 -0.2076476674013625 0.2470240441918062
 -0.503206363812903 0.433052302413274 -0.03789631568343614 0.04797952832523602
 -0.8537813091489229 0.42886671778414 0.06055867829390988 -0.5606573302511348
 -0.3522444702707113 0.3991488974581056 0.04864380019623053 0.1614038219811582
 0.2968165579797987 0.07086349335047312 -0.2462214902722212 -0.05736911911042044
 -0.2869175828870191 -1.051835699468731 1.49666936379032 -0.2876629450975405
 -0.09957327921165732 -0.7110643119805947 0.5242965601429526 0.1601332386312377
 -0.3211031463572173 -0.05510652187254092 -0.1255142436181903 0.5728409836523591
 0.01336933725906808 -0.2205725541914282 0.1661473638226907 0.3181676197056673
 0.3260107447984509 0.2903369603338329 0.059450094449759 -0.6909512831707532
 0.1722346610848962 0.4454754671098289 -0.5128740859266305 -0.3367725271426037
 -0.5002617679088267 -0.1659037734687634 0.2851628480356183 0.2219499496181021
 -0.6681585535149009 -0.4655980054173771 -0.2515053261775598 0.8341713111984442
 -0.5778227673414283 0.557348853794735 -0.3325924574398643 -0.03400070658215084
 0.06304540827763018 -0.0002121826624886542 0.2632389700258555 -0.5256685036212106
 -0.07730628012207542 0.1255752239805705 -0.009633402112198241 -0.1990631351877443
 0.03723285620403888 -0.02903805531791956 -0.07158756338534661 -0.06331287454466139
 -0.0336804704908702 -0.1787863586556342 0.1039581202291726 -0.1394122924285757
 0.02425521553275205 -0.000863429165960774 -0.174705214961943 -0.1757220970862664
 0.295785049534557 -0.301206535553501 -0.1473137287741064 -0.04148579171395247
 -0.3490370253992963 0.4311153608954104 -0.1979041793668059 -0.2537077927700473
 -0.2910462202877742 1.064700312144276 -0.3991279982362432 -0.6269314797535591
 -0.1463420118530478 0.3384751992791106 -0.04126634714589251 0.08223945794749395
 -0.1456808574941804 0.3049162838880434 -0.1270525287199104 -0.1919446617406106
 0.1579747370402552 0.2058195706434162 -0.06086593316965435 -0.245515376279322
 -0.5582929039874077 0.5422024623708716 -0.07554463023258179 0.1658161001080896
 -1.060500242529131 1.672170566791696 -0.5396026982402443 -1.243158697854535
 -0.7907041581756717 0.6467925396840636 -0.09393640046240967 -0.2797405411445098
 0.1239390444857986 0.205703417259451 -0.003695937210183473 -0.2714279223548283
 0.06387654006996278 0.4685581609702175 -0.04585097204922126 -0.3317766011331542
 -0.11102919481698 -0.2309620696985132 -0.2300297312743093 0.1584076314627704
 0.1286069988720625 -0.3274602654727224 0.2362271705452658 0.1781606072009122
 0.4043154242903243 -0.2606973241940093 -0.3178956324991612 0.1852063350904421
